#include <stdio.h>
#include <stdlib.h>

/* ******************** memory mapped I/O ******************** */
#define HEX3_HEX0_BASE 0xFF200020
#define HEX5_HEX4_BASE 0xFF200030

#define PS2_BASE 0xFF200100
#define PIXEL_BUF_CTRL_BASE 0xFF203020
/* ******************** memory mapped I/O ******************** */


/* ******************** draw parameters ******************** */
#define CIRCLE_RADIUS 16
#define DRAW_COLOR 0xFFFF  // draw (pen): white
#define BG_COLOR 0x0000    // background: black
/* ******************** draw parameters ******************** */


/* ******************** resize constants ******************** */
// VGA screen dimension
#define SCREEN_WIDTH  320
#define SCREEN_HEIGHT 240
// canvas dimension
#define WIDTH  240
#define HEIGHT 240
// side panel dimension
#define TITLE_HEIGHT 40
/* ******************** resize constants ******************** */


/* ******************** lenet model constants ******************** */
#define INPUT_SIZE 28
// conv1
#define CONV1_FILTERS 6
#define CONV1_KERNEL_SIZE 5
#define CONV1_OUTPUT_SIZE 24 // 28 - 5 + 1
// pool1
#define POOL1_OUTPUT_SIZE 12 // 24 / 2
// conv2
#define CONV2_FILTERS 16
#define CONV2_KERNEL_SIZE 5
#define CONV2_OUTPUT_SIZE 8  // 12 - 5 + 1 after pooling
// pool2
#define POOL2_OUTPUT_SIZE 4 // 8 / 2
// fully connected
#define FC1_SIZE 120
#define FC2_SIZE 84
#define OUTPUT_CLASSES 10
/* ******************** lenet model constants ******************** */


/* ******************** lenet model weights ******************** */
double conv1_weights[6][1][5][5] = {
    {
        {
            {-0.25541285, -0.10864280, 0.22398704, 0.31420249, -0.04142559},
            {0.02454695, -0.08966834, 0.29522464, 0.23131539, -0.03001620},
            {-0.07338604, -0.15340689, 0.20628405, 0.34610176, 0.35325819},
            {-0.40006188, -0.07880792, 0.05927179, 0.39493644, 0.21021211},
            {-0.38866186, -0.15167733, -0.05119619, 0.36155975, 0.19455221}
        }
    },
    {
        {
            {-0.04276942, 0.08539744, 0.19583015, 0.25927275, 0.11846545},
            {-0.23227477, 0.25387105, 0.34237292, 0.19553307, 0.31843185},
            {-0.13389131, 0.19582714, 0.34502196, 0.11075576, -0.16932490},
            {-0.06516474, 0.34965092, 0.20900166, -0.24321268, -0.41649851},
            {0.21097618, 0.23517495, -0.14425382, -0.25887170, -0.21760672}
        }
    },
    {
        {
            {-0.16867334, 0.00703776, -0.23198940, -0.13372277, 0.10550169},
            {0.16881089, -0.16843751, 0.15192330, 0.16893631, -0.20631851},
            {0.06755708, -0.04944865, 0.05454463, 0.20959160, -0.19107078},
            {0.24887174, 0.25961119, 0.07882724, 0.40279180, 0.31533551},
            {0.08410702, 0.31702766, 0.27188104, 0.25255182, 0.19322397}
        }
    },
    {
        {
            {0.21349142, 0.18972053, 0.18060997, 0.08080651, -0.14972630},
            {0.07431153, 0.07815854, 0.26237532, -0.01493434, -0.45885992},
            {-0.08394417, 0.16056126, 0.41704339, 0.12536436, -0.45408943},
            {-0.32031846, -0.04615345, 0.39056665, 0.27686930, -0.12588692},
            {-0.08211803, -0.03237622, 0.25202742, 0.29937801, 0.10661121}
        }
    },
    {
        {
            {0.26927769, 0.20256868, 0.06483600, -0.32141790, -0.02015520},
            {0.18488689, 0.36634102, 0.34975421, 0.04486914, 0.08456606},
            {-0.21666333, 0.18479435, 0.19832861, 0.31588668, 0.24368961},
            {-0.02320002, -0.14998537, 0.26528400, 0.28093046, 0.19022869},
            {-0.21083374, -0.08027693, -0.25959185, 0.08744510, -0.01630948}
        }
    },
    {
        {
            {-0.08134969, 0.07666196, 0.01474994, -0.34468919, -0.07073549},
            {0.11597903, -0.09977148, -0.40404367, -0.22190648, 0.07962902},
            {-0.24473275, -0.18098596, 0.02959045, 0.49464974, 0.46065766},
            {0.18932870, 0.26628742, 0.38755932, 0.31494468, 0.25756180},
            {0.19984820, 0.01289994, 0.06532389, -0.16402812, -0.33995423}
        }
    }
};

double conv1_biases[6] = {-0.10991057, -0.06207252, -0.01671807, -0.25513405, -0.01601709, -0.00213630};

double conv2_weights[16][6][5][5] = {
    {
        {
            {0.00951367, -0.03667063, -0.20262520, -0.14739963, -0.25309423},
            {0.04323480, -0.07029671, -0.10644326, -0.10591898, 0.00822975},
            {-0.10634995, -0.05912388, -0.00750146, -0.02560376, 0.12356555},
            {-0.04230631, 0.01446859, -0.22803123, -0.13968223, -0.16345212},
            {-0.09372832, 0.04318845, 0.05261341, -0.02643582, -0.06458055}
        },
        {
            {0.01172931, 0.09190978, -0.07789637, -0.15126017, 0.08504020},
            {-0.06393573, 0.07315222, -0.05317421, 0.01161584, 0.03469928},
            {0.01053430, 0.16562817, 0.07296699, 0.09131333, 0.00853886},
            {-0.05625675, 0.07260811, -0.12346918, -0.20146836, -0.08956737},
            {-0.08999551, -0.11078656, -0.18567167, -0.14834388, -0.04019865}
        },
        {
            {-0.05767278, -0.10304311, -0.03990359, 0.12413490, 0.16235815},
            {0.12770201, 0.16803513, 0.25940600, 0.24081831, 0.10781541},
            {-0.04141320, -0.10352869, -0.15431671, -0.19523910, -0.06925825},
            {-0.01805041, -0.02014075, -0.09651371, -0.04711870, -0.05618535},
            {-0.16298923, 0.01575737, 0.08520687, 0.08964167, 0.06958301}
        },
        {
            {0.00932827, -0.02693421, 0.00137763, -0.01666811, 0.04868064},
            {0.00278720, 0.02439132, 0.02961770, -0.12062041, -0.07517730},
            {-0.09069207, -0.10769003, -0.09698114, -0.06901979, 0.11709692},
            {0.12335380, 0.13208076, 0.03060850, 0.07403690, -0.04405702},
            {-0.00852376, -0.01247533, -0.09808239, -0.17460380, -0.14432099}
        },
        {
            {-0.03731836, -0.13720688, -0.12720589, -0.12522565, -0.15582895},
            {0.05593833, -0.01809307, 0.16684461, 0.11637279, 0.04978426},
            {0.00669147, 0.13861555, 0.15523911, 0.13275594, 0.17184044},
            {-0.02809159, -0.09094742, -0.05918700, -0.12796491, -0.03089577},
            {0.00067223, -0.02784426, -0.01455535, 0.00885046, -0.07847141}
        },
        {
            {-0.05915784, -0.09412106, -0.09649706, 0.02555197, 0.02223137},
            {0.04926068, 0.09691177, 0.35018954, 0.40965417, 0.13424963},
            {0.07912134, 0.08283420, 0.16752446, 0.04840146, -0.06136660},
            {-0.15337661, -0.19846979, -0.15286325, 0.06007033, 0.14930759},
            {-0.07214538, -0.02358459, 0.08304800, 0.10903949, 0.07408536}
        }
    },
    {
        {
            {-0.08370238, -0.01633724, -0.10220657, -0.05502006, -0.06605562},
            {-0.06631371, -0.05251626, -0.10971577, 0.08459444, 0.01223371},
            {-0.15978105, 0.02818045, 0.02567470, -0.05228204, -0.10540767},
            {0.00317100, 0.05568541, -0.01858432, -0.02709951, -0.00872708},
            {-0.02656533, -0.06213569, -0.12767997, -0.06981439, -0.15302463}
        },
        {
            {-0.06078520, 0.12225556, 0.02372470, -0.08804802, -0.17171666},
            {0.12218532, 0.08998279, -0.02615353, -0.16231489, -0.11166558},
            {0.02038658, -0.12234493, 0.02804659, 0.06625362, 0.13047644},
            {-0.01067259, -0.02229036, 0.21219271, 0.17399518, 0.06830286},
            {-0.01978491, 0.15122895, 0.04739462, 0.00016901, -0.18006387}
        },
        {
            {-0.07697628, -0.01071867, -0.01538368, -0.10764073, -0.06572654},
            {-0.05444690, -0.03300404, -0.07481880, 0.03087315, 0.11799218},
            {-0.04545041, -0.07117738, 0.07116865, 0.13437006, 0.06878765},
            {0.00045437, 0.10299382, 0.01345042, -0.00223259, -0.01907432},
            {0.07280568, 0.04278468, -0.02380359, -0.11204705, -0.13662487}
        },
        {
            {-0.14756043, -0.08015820, -0.00801115, -0.02981256, 0.06537103},
            {-0.03798294, 0.03643865, -0.02885632, 0.07868175, 0.03475565},
            {-0.13695274, -0.10788926, 0.01039595, -0.08410242, -0.02061637},
            {0.03450932, 0.02358195, -0.09084549, -0.02153813, 0.04954777},
            {0.05755499, -0.01883901, -0.02615717, 0.03859366, -0.03998434}
        },
        {
            {-0.05897144, 0.07097422, 0.01924408, 0.02947993, -0.09136329},
            {-0.01395196, -0.08366203, -0.05219553, 0.00720766, -0.02973838},
            {-0.15915029, -0.12765563, -0.03752616, -0.02397671, 0.04779204},
            {0.12109623, 0.09527253, -0.00097015, -0.04787092, 0.06020528},
            {0.17359868, 0.08964714, 0.03981093, 0.02876351, -0.07843702}
        },
        {
            {0.08446550, 0.04633425, 0.03786816, -0.09236198, -0.13771883},
            {-0.05871998, -0.05083640, -0.03519019, -0.06462073, 0.08288622},
            {0.00270211, 0.04321800, 0.09741139, 0.23465495, 0.01521428},
            {-0.01359309, 0.17769933, 0.21906999, 0.04114838, -0.14519389},
            {0.18009575, 0.08204809, 0.05160119, 0.01154329, -0.01053251}
        }
    },
    {
        {
            {0.15275109, -0.00202205, 0.04043902, -0.00769607, 0.08376753},
            {0.05307892, -0.16924325, -0.10616700, 0.06418709, 0.07557610},
            {-0.00806266, -0.17772505, -0.24444507, -0.18179305, -0.12684681},
            {-0.06035295, -0.23873585, 0.05776886, -0.03447170, -0.05090177},
            {-0.06934009, 0.04115168, 0.12115510, 0.08718608, -0.01182647}
        },
        {
            {0.18698297, 0.08818725, 0.05907037, 0.08546039, 0.05365127},
            {0.14061396, 0.05752828, 0.03665792, 0.01995998, 0.07636362},
            {0.13755189, -0.12804322, -0.15061139, -0.10725241, 0.02660623},
            {-0.01736658, -0.10141752, -0.07102756, -0.08760881, -0.18453507},
            {0.03013058, -0.04164981, 0.04362617, 0.14699106, -0.00043794}
        },
        {
            {0.18164422, 0.03370574, 0.10169464, 0.04628439, 0.11871003},
            {0.09529999, -0.07483276, -0.14547074, -0.07735030, -0.02998275},
            {0.04883114, -0.15164401, -0.12802984, -0.20911437, -0.18117386},
            {-0.07172712, -0.09295906, -0.02737170, 0.08613319, 0.17952845},
            {-0.05737159, 0.06313467, 0.08186278, 0.05449439, 0.10762660}
        },
        {
            {0.14003709, 0.06066264, -0.00243297, -0.07396138, -0.01287787},
            {0.12630756, -0.05398793, -0.00255095, -0.08902527, -0.07710698},
            {0.05686618, -0.13341026, -0.11226948, -0.10230643, -0.05310554},
            {-0.03288907, -0.18759967, -0.08016777, -0.00395078, -0.02507232},
            {0.02277919, 0.01314860, 0.04621617, 0.06076720, 0.00560570}
        },
        {
            {0.14515801, 0.08664110, 0.02661482, -0.00444250, -0.00179796},
            {0.10377154, 0.11628689, 0.03209100, -0.06590575, 0.03261587},
            {0.03959993, -0.03127114, -0.07405261, -0.22387807, -0.09272554},
            {-0.09158922, 0.00893070, -0.15657488, -0.05442055, -0.13029879},
            {0.02586915, -0.04769286, 0.02398105, 0.02546912, 0.04019942}
        },
        {
            {-0.04701508, 0.04853217, -0.00091434, 0.01013951, 0.11475114},
            {0.07131858, 0.02578801, 0.01614616, 0.04829968, 0.14849241},
            {-0.15982887, -0.16617090, -0.20609829, -0.16070174, -0.17314401},
            {-0.04273827, -0.03409465, -0.05378788, 0.03902793, 0.10171358},
            {0.06144430, -0.00968492, 0.13362370, 0.15054639, -0.00574281}
        }
    },
    {
        {
            {-0.04011963, 0.08924133, -0.26563838, -0.09743058, 0.02123412},
            {-0.02694705, 0.14935338, 0.01029623, -0.15828682, -0.12762140},
            {-0.20361929, 0.16562723, 0.14950673, 0.10384984, -0.08526299},
            {-0.20776290, -0.02898920, 0.00308055, 0.04937500, -0.08295269},
            {-0.03860102, -0.13471764, -0.05055025, -0.03521110, -0.10176177}
        },
        {
            {-0.12868729, -0.04224994, -0.05354846, -0.10610844, -0.01878121},
            {-0.03541626, -0.06119600, -0.04059361, -0.01543890, 0.01267065},
            {-0.07932208, 0.01057457, 0.04759248, -0.05602237, -0.09288078},
            {-0.08717857, 0.03330490, 0.11506715, 0.17061996, -0.04867934},
            {-0.05330847, -0.09010426, 0.00350532, 0.06231076, 0.08361914}
        },
        {
            {0.10296202, 0.09715108, -0.03883228, -0.15510774, -0.17857265},
            {-0.00418244, 0.11923870, 0.10322928, 0.10588147, -0.07105815},
            {-0.18949968, -0.03716102, 0.03055381, 0.05123672, 0.01985607},
            {-0.11591112, -0.06094997, 0.01239464, -0.04596220, -0.02173973},
            {0.06419817, 0.03986459, -0.03762078, 0.04919940, -0.02686903}
        },
        {
            {0.01123297, 0.16372381, -0.10491180, -0.19993617, -0.03042665},
            {-0.02056526, 0.27719268, 0.34582394, 0.03150725, -0.18987599},
            {-0.10652768, -0.09765971, 0.15427838, 0.20300935, -0.05408965},
            {-0.03525177, -0.19138147, -0.03170950, 0.23312119, 0.10444523},
            {-0.03462654, -0.06175462, -0.06964180, -0.03709655, 0.02230677}
        },
        {
            {0.13133571, 0.03576604, -0.04307828, -0.04508477, -0.02104884},
            {-0.00802821, 0.07018455, 0.19099420, 0.03127988, -0.12105311},
            {-0.04728448, 0.11092801, 0.12202348, 0.22494733, -0.10330696},
            {-0.09109211, -0.11272909, 0.10954015, 0.20078480, 0.02668339},
            {-0.07107542, -0.11499026, -0.03637978, -0.01885706, -0.03237985}
        },
        {
            {0.06982002, -0.01367408, -0.10589498, -0.07617372, -0.15048097},
            {0.07930738, 0.01478230, 0.02890467, -0.02676164, -0.07460587},
            {-0.07799034, -0.08578770, 0.01917581, -0.03410897, -0.08667983},
            {0.04621827, 0.02122501, 0.00801539, -0.02450211, 0.00248528},
            {0.04746030, 0.03234445, 0.05216357, 0.09225430, -0.14263448}
        }
    },
    {
        {
            {0.02229863, -0.12877649, -0.03301685, 0.15531598, 0.11823007},
            {0.08635710, -0.14626707, -0.07209312, 0.22243920, 0.00483681},
            {0.11916047, -0.25078380, -0.00413476, 0.13972111, -0.01538506},
            {-0.08054603, -0.10423793, 0.07783477, 0.19216003, -0.19402231},
            {0.00279939, -0.06669306, 0.00592567, 0.07559299, -0.09991166}
        },
        {
            {-0.07477719, 0.00787268, -0.02225219, -0.03568510, 0.01686742},
            {0.16893180, -0.03010030, -0.16469903, -0.07040910, 0.24190338},
            {0.29082000, 0.08282610, -0.27384064, 0.04421236, 0.15372209},
            {0.18650953, -0.16590099, -0.04861881, 0.17914034, 0.10798394},
            {-0.08068050, -0.13814513, 0.14499414, 0.13746190, 0.00662979}
        },
        {
            {0.01136054, 0.03316579, -0.09851254, 0.02955269, 0.00733515},
            {0.09563040, -0.03203449, -0.16067669, -0.02229991, 0.03295638},
            {0.11448897, -0.19841395, 0.00440718, 0.02172932, -0.04993418},
            {-0.05863248, -0.12593538, 0.07731292, 0.06462284, 0.04244066},
            {-0.06414857, 0.06702962, 0.03107042, 0.08026033, -0.06995998}
        },
        {
            {0.06483252, -0.14773735, -0.11697041, -0.04865139, 0.15885657},
            {0.17012715, -0.09363461, -0.21949033, -0.00655073, 0.16633882},
            {0.07958121, -0.15230688, -0.20637518, 0.10807418, 0.07697128},
            {0.05797760, -0.22258478, -0.01084703, 0.09782427, -0.06112785},
            {-0.02051233, -0.14553152, -0.00507201, 0.06132720, 0.02040093}
        },
        {
            {0.05004867, -0.01615151, -0.12609747, -0.02603392, 0.06285621},
            {0.09423047, -0.03472575, -0.08229297, -0.01507307, 0.01571981},
            {0.07234194, -0.11002859, -0.03996897, -0.01562048, -0.06525406},
            {-0.01705994, -0.14848809, -0.02730989, -0.07103375, 0.03780150},
            {0.02158214, -0.01412213, 0.06579088, -0.05437855, 0.02816164}
        },
        {
            {-0.04646012, 0.07235947, -0.02105311, -0.04066785, 0.00583058},
            {0.12067199, -0.09987396, -0.07250178, -0.03964059, 0.04800211},
            {0.13416684, -0.06458202, -0.04548689, 0.10815436, -0.03429492},
            {-0.02248269, -0.07579619, -0.01141632, 0.02646546, -0.07966993},
            {-0.02203956, 0.02681939, -0.00421332, -0.03274287, -0.04967543}
        }
    },
    {
        {
            {0.08863637, -0.00896564, -0.08435702, -0.06438511, 0.04666832},
            {0.02065923, 0.00112944, -0.14816809, 0.00108889, 0.08609570},
            {-0.02917030, -0.05433821, -0.22226693, 0.06458493, 0.05223764},
            {-0.23479021, -0.07963639, -0.13231301, 0.08788176, 0.13159806},
            {0.00714251, 0.07115954, -0.05713255, 0.09109139, 0.13074447}
        },
        {
            {0.07157093, 0.09750386, -0.05254466, 0.01750536, -0.13634318},
            {0.10882130, 0.14762837, -0.02045993, -0.09671348, -0.04630085},
            {0.08245470, -0.08229407, -0.09500886, -0.20554107, 0.04689771},
            {-0.15310121, -0.21601330, -0.17953691, -0.05839854, 0.10068648},
            {-0.13941656, -0.07730867, 0.01566662, 0.02454739, 0.04040538}
        },
        {
            {0.06132901, 0.05931019, 0.02234142, 0.03123482, 0.08017796},
            {0.01493276, 0.02529959, -0.06648955, -0.04718287, -0.00143752},
            {-0.21648930, -0.22411086, -0.06369730, 0.01711201, 0.01466337},
            {-0.16259694, -0.06961825, -0.07490302, 0.05384281, 0.06031458},
            {0.07543168, 0.02041381, -0.02570750, 0.01967079, 0.08012433}
        },
        {
            {0.06098630, 0.02631156, -0.06059657, -0.03477974, 0.02596047},
            {-0.05174412, -0.01085026, -0.12323198, -0.03159605, 0.00923653},
            {0.00340712, 0.07717883, -0.07796314, -0.07838353, 0.06807666},
            {-0.21761784, -0.10726507, -0.16755728, -0.04255623, 0.13417415},
            {-0.00919287, -0.07193968, -0.15018819, -0.02530579, 0.14073525}
        },
        {
            {-0.00794055, 0.02322953, 0.02753139, -0.05567030, -0.01551190},
            {0.09232498, 0.11897947, 0.02890362, -0.06785827, 0.08055337},
            {0.08740143, -0.07588108, -0.17858508, 0.06878808, 0.01300663},
            {-0.12097497, -0.14758286, -0.12578587, 0.07796349, 0.03414485},
            {-0.07946001, -0.11243027, -0.02787629, 0.00258864, 0.03253083}
        },
        {
            {0.08997951, 0.12486295, 0.11496914, -0.01253513, -0.04065447},
            {0.11660279, 0.09326156, -0.05419688, -0.14309344, 0.00685743},
            {-0.18187006, -0.19825481, -0.22909367, 0.03321445, -0.01001765},
            {-0.15480113, -0.12300292, -0.09468264, 0.02747494, -0.01374909},
            {-0.02596895, 0.03395795, -0.00310115, -0.07388698, -0.05848178}
        }
    },
    {
        {
            {0.05942893, -0.09012400, -0.02496271, -0.07425231, -0.01429473},
            {-0.05109843, 0.03355852, 0.05604387, -0.07184259, 0.00927269},
            {-0.01170326, 0.04736156, -0.07161756, -0.00668830, -0.07843329},
            {-0.03868874, -0.03725392, 0.06141866, 0.01046789, 0.02492873},
            {-0.02855193, 0.07009105, -0.04610460, 0.05420274, -0.03144334}
        },
        {
            {-0.06072112, -0.02253742, -0.06273147, -0.07529711, 0.02040792},
            {0.02740170, 0.05433365, -0.06993078, -0.06514563, -0.04022880},
            {-0.08191326, -0.04325168, -0.00892076, -0.07170855, 0.01992395},
            {-0.06714406, -0.00986346, -0.05184624, 0.01753301, -0.07613209},
            {-0.05548048, -0.03989158, -0.06867782, 0.02220991, 0.02477166}
        },
        {
            {0.06087738, 0.01242199, -0.01900102, 0.00246513, -0.06752764},
            {-0.02087355, -0.01390544, 0.06404533, -0.00062771, -0.01391656},
            {-0.07239543, 0.06380196, 0.03156945, 0.06962138, -0.03964130},
            {-0.02126135, -0.05748742, -0.08260473, -0.03042649, 0.02205569},
            {-0.03510057, 0.00875479, -0.03461826, 0.03925023, -0.06042033}
        },
        {
            {-0.00196564, 0.02981460, -0.08155274, -0.07651216, -0.00919293},
            {0.02039456, -0.02796271, -0.08032189, 0.05800695, -0.05222516},
            {-0.02539635, 0.06186343, 0.00367033, 0.02108642, 0.02168565},
            {0.02397550, 0.00377865, 0.04151311, -0.07375415, -0.07771609},
            {-0.07501294, 0.07733081, 0.02943818, 0.02575359, -0.05277546}
        },
        {
            {0.03335182, -0.07397690, -0.05358848, -0.08109947, -0.03630424},
            {0.04065559, -0.07254123, -0.01069154, 0.02038428, 0.05588022},
            {-0.06312378, -0.08250336, 0.04303928, -0.00860728, -0.01304504},
            {-0.04925043, -0.08433927, 0.01672749, -0.04539490, -0.05255275},
            {-0.03436471, -0.04526676, 0.07395792, -0.08747260, 0.05060603}
        },
        {
            {-0.08880480, 0.04599215, 0.03715920, -0.07427830, -0.04771592},
            {-0.09011003, 0.04730415, -0.01770108, -0.04235012, -0.07407218},
            {-0.04939177, 0.06151174, -0.05665930, -0.00757304, -0.06897957},
            {0.06475095, -0.04009897, -0.08062095, 0.01096761, 0.01381132},
            {0.04849644, 0.06547929, -0.03972429, -0.04967014, -0.07229844}
        }
    },
    {
        {
            {-0.01885419, 0.06777743, -0.11032113, -0.10327891, -0.19124706},
            {0.02528894, 0.13145477, 0.13300730, 0.06373210, -0.12871365},
            {-0.08240605, -0.01554891, 0.17653644, 0.21262035, 0.19274089},
            {-0.21385546, -0.14703764, -0.04329749, 0.02257990, -0.03701467},
            {-0.01994847, -0.07170026, -0.08331709, -0.30632409, -0.19667885}
        },
        {
            {-0.04551589, 0.03395575, -0.07513488, -0.01957837, 0.07625595},
            {-0.10359748, -0.10553309, -0.13922556, -0.09380303, 0.05714649},
            {0.03424143, -0.05846441, -0.00348529, 0.03900710, -0.03540563},
            {-0.10659096, -0.19175759, 0.00063666, 0.02409454, 0.06978919},
            {-0.16164531, -0.13809526, -0.02845524, -0.08437496, -0.00962679}
        },
        {
            {0.01012709, 0.02803793, 0.05240869, 0.05611519, 0.07331298},
            {0.01361510, 0.09762429, 0.14077830, 0.15498270, 0.09434701},
            {-0.13480163, -0.09502738, -0.09102464, -0.00305723, 0.16536367},
            {-0.06356643, -0.04906353, -0.17677136, -0.15242025, -0.18829033},
            {0.09183446, 0.11034094, -0.01972183, -0.05681002, -0.16562955}
        },
        {
            {-0.03275760, 0.14683275, 0.07872133, -0.00162691, 0.03570176},
            {0.02916548, 0.14581241, 0.11161437, 0.01003647, -0.01644188},
            {-0.08522192, -0.03088092, -0.07584553, 0.14053965, 0.04185504},
            {-0.03610691, -0.13321349, -0.12218649, -0.13149242, -0.04032958},
            {0.16441672, -0.12282214, -0.13734804, -0.19572373, -0.08607941}
        },
        {
            {-0.01592815, 0.02006298, -0.08129737, -0.02025611, -0.02366373},
            {0.00002330, 0.17939015, 0.07657836, 0.02262811, 0.05822958},
            {0.04295198, -0.01425858, 0.15221697, 0.22230513, 0.15841408},
            {-0.04567572, -0.22110683, -0.00953417, 0.05822963, 0.16640694},
            {-0.02258497, -0.11540110, -0.18309750, -0.20789987, -0.22801028}
        },
        {
            {0.03406943, -0.03568845, 0.07010036, 0.05863882, 0.09332357},
            {-0.00838931, 0.06439722, 0.01136935, 0.16926138, 0.19993284},
            {-0.06780295, -0.00726777, -0.09508129, 0.04010970, 0.20979807},
            {-0.14464200, -0.16439569, -0.15271829, -0.12030855, -0.06794199},
            {0.02535736, -0.01524030, 0.03572930, -0.10773619, -0.13701347}
        }
    },
    {
        {
            {0.11197338, -0.22106959, -0.13792162, 0.07669464, 0.04853031},
            {-0.10627584, -0.22780438, -0.05379881, 0.07279812, -0.23065639},
            {-0.14800982, 0.06920093, 0.03974586, -0.00290200, -0.15822302},
            {-0.06524733, 0.07098154, 0.07228902, -0.07418083, -0.15102261},
            {0.07451695, 0.15039122, 0.11320355, 0.06750996, -0.11309662}
        },
        {
            {0.04484771, 0.17692950, 0.03574026, -0.03335559, -0.02963584},
            {0.12404412, -0.12609519, -0.30159387, 0.12088723, 0.17682295},
            {-0.01454220, -0.26579723, 0.18981513, 0.28071898, 0.11750969},
            {-0.26137656, -0.02433480, 0.16474691, 0.17768200, -0.15106969},
            {-0.00734154, 0.14838941, 0.12608548, -0.06480823, -0.03054448}
        },
        {
            {-0.05369207, -0.26060250, -0.20469867, -0.05163268, 0.01803659},
            {-0.08755112, -0.17402381, 0.03019528, 0.09103873, 0.05331121},
            {-0.24317493, 0.01465328, 0.10909297, -0.00699645, -0.01455634},
            {-0.01743266, 0.15106256, 0.15516493, -0.06837860, -0.08656719},
            {0.01640842, 0.11072925, 0.00732266, -0.11688226, -0.02138647}
        },
        {
            {0.01955863, -0.06303810, -0.12284297, 0.01433970, 0.04372449},
            {-0.07809915, -0.21275499, -0.09254907, -0.13850005, -0.19244052},
            {-0.24593274, -0.15723720, -0.14272743, -0.13485546, -0.13000575},
            {-0.24232905, -0.08210868, 0.01861756, 0.08079168, 0.00694315},
            {-0.08632050, 0.11589182, 0.08706071, 0.05490816, -0.08782227}
        },
        {
            {0.01306233, -0.17511553, -0.16075411, 0.04370180, 0.08418474},
            {-0.19162734, -0.22002056, -0.16703628, -0.10851359, -0.11735567},
            {-0.22647277, -0.05477384, 0.03373889, -0.12052464, -0.05066732},
            {-0.05857704, 0.06661694, 0.03628821, -0.06404340, -0.05126013},
            {-0.01662450, 0.00090475, 0.02353776, 0.10630028, -0.09155323}
        },
        {
            {-0.00106084, -0.05739661, -0.28894112, -0.11464139, 0.00523364},
            {-0.09580436, -0.17616577, -0.07166735, 0.24019088, 0.19844314},
            {-0.18644165, 0.00588720, 0.16904350, 0.14855300, -0.04675088},
            {0.03941140, 0.04176484, 0.13850291, -0.12428396, -0.03737871},
            {0.06802553, -0.04842414, -0.08491951, 0.02248381, -0.02586806}
        }
    },
    {
        {
            {0.00348016, -0.08530126, 0.00226292, 0.04558494, -0.07066808},
            {0.04188970, -0.10955056, -0.21205470, -0.24184479, -0.25568518},
            {0.20081942, 0.15212256, 0.10868692, -0.02218600, -0.03395198},
            {-0.05442340, -0.01441442, 0.05104721, 0.00410440, 0.11048716},
            {-0.11314213, -0.16918080, -0.28065571, -0.16013527, -0.22745575}
        },
        {
            {-0.00692126, 0.07198409, 0.08892930, 0.01745090, 0.05119907},
            {0.00356530, 0.01660443, 0.05167112, 0.06223792, -0.06579329},
            {-0.07465828, -0.18083881, -0.12322395, -0.12051760, -0.04951149},
            {0.01906517, 0.16372256, 0.04070359, 0.11760788, 0.10369836},
            {-0.13182150, -0.04897480, -0.09030478, -0.02071270, 0.01803538}
        },
        {
            {-0.08736534, -0.09993678, -0.13486426, -0.19357046, -0.12647714},
            {0.08602827, 0.04434257, 0.01383454, 0.09965697, 0.07368506},
            {0.08758081, 0.12025237, 0.26447785, 0.18909775, 0.25491416},
            {-0.12139259, -0.21360253, -0.12006219, 0.03174518, -0.08911737},
            {-0.13571966, -0.07519641, -0.10696179, -0.19014889, -0.08667008}
        },
        {
            {-0.13593979, -0.11153349, -0.19344765, -0.07066146, 0.04602658},
            {0.01943647, 0.18762292, -0.00619488, 0.12072349, -0.03539439},
            {0.06195833, 0.10543773, 0.07587265, -0.06873122, -0.11930276},
            {-0.09327394, -0.14300187, 0.01031071, -0.01292198, -0.00848278},
            {-0.04944767, 0.01205797, -0.01667106, -0.01007167, 0.02850491}
        },
        {
            {-0.10562313, -0.09081007, -0.07489363, 0.02508494, 0.02939080},
            {0.01055990, -0.07437609, -0.12968501, -0.06155709, -0.07546080},
            {0.10971873, 0.21789797, 0.09481099, 0.06879422, 0.00396839},
            {-0.00979726, 0.19440347, 0.20888694, 0.20490697, 0.22039126},
            {-0.17487143, -0.18710199, -0.19383121, -0.18623553, -0.11465701}
        },
        {
            {-0.04500017, 0.12005217, 0.07639808, 0.02140122, -0.08352696},
            {-0.06443024, -0.09991609, -0.01823851, 0.05686623, 0.10988381},
            {0.09155903, 0.23620671, 0.25583154, 0.25610009, 0.31103420},
            {-0.06872742, -0.05066951, 0.06702431, 0.08214057, 0.12331767},
            {-0.19554752, -0.21531202, -0.16679317, -0.15988223, 0.00873344}
        }
    },
    {
        {
            {-0.15917692, -0.20754667, -0.06185741, 0.04197604, 0.21487039},
            {0.06572163, -0.09491441, -0.14264649, -0.05386894, 0.05098023},
            {0.06655314, 0.21128935, 0.13321838, -0.05914018, -0.06609721},
            {-0.01548647, 0.06852371, 0.08583004, 0.09865649, -0.09009735},
            {-0.02116615, -0.01985346, -0.10922344, 0.06828384, 0.00910002}
        },
        {
            {-0.18869714, -0.09779448, -0.08799905, 0.01678014, -0.04584539},
            {0.02929071, -0.14295366, -0.13942012, -0.11894968, -0.09256542},
            {0.06600633, -0.04907797, -0.15201549, -0.20507249, -0.16439515},
            {0.05126268, 0.14193781, 0.03050581, 0.03628439, -0.13189875},
            {0.06809478, 0.08385539, 0.03978597, 0.04369787, 0.07693938}
        },
        {
            {-0.04177605, -0.02179334, -0.24335270, -0.14125161, -0.10239873},
            {0.08483009, 0.02290048, -0.08946247, -0.06204347, -0.10554260},
            {0.08136674, 0.11497666, 0.00124441, -0.01622810, -0.08523814},
            {0.01866341, 0.05395304, 0.09267135, 0.12660432, 0.05859862},
            {0.01642288, 0.09834444, 0.03049665, 0.02579729, 0.02243716}
        },
        {
            {-0.01248190, -0.23850775, -0.15655611, -0.06265059, 0.04280009},
            {0.22147900, 0.09395403, 0.03834419, -0.11808133, -0.03187954},
            {0.01158560, 0.13180378, 0.17612095, 0.08110875, -0.15934734},
            {-0.04014991, 0.18043624, 0.23116156, 0.24094348, 0.00711732},
            {0.02917497, 0.04967623, 0.09252384, 0.00420879, 0.03261514}
        },
        {
            {-0.10853677, -0.20600148, -0.14633557, 0.07722274, 0.11700562},
            {0.15122013, -0.09005835, -0.11305729, -0.19026639, -0.04489018},
            {0.17359875, 0.18709198, 0.12373628, -0.10037971, -0.03806176},
            {-0.02890589, 0.08132674, 0.11968914, 0.15217273, 0.10870448},
            {0.09188691, 0.07575221, 0.12110551, -0.00908147, 0.10901744}
        },
        {
            {-0.07735304, -0.00959002, -0.07621609, -0.04648374, -0.04593062},
            {0.05943773, -0.02772476, -0.19911824, -0.13565162, -0.14658277},
            {0.06466188, 0.02556151, -0.04374590, -0.12189415, -0.12422559},
            {0.01212802, -0.01528406, -0.04835804, 0.00114846, -0.11223361},
            {0.08500960, 0.12930551, -0.02145117, 0.01034454, -0.05892058}
        }
    },
    {
        {
            {-0.15368761, -0.20803030, 0.20375882, 0.18258227, -0.01667653},
            {-0.18848316, -0.22214216, -0.12309288, -0.11318033, -0.08634587},
            {-0.18569875, -0.08344629, -0.11491885, -0.00587279, -0.13644724},
            {0.05052775, -0.00319060, 0.11850982, -0.02144350, -0.02377713},
            {-0.00293911, -0.05366585, 0.05097327, 0.04082299, 0.13389331}
        },
        {
            {0.05728832, -0.01112257, 0.01558031, 0.07445040, 0.11548682},
            {-0.05937762, -0.28235671, -0.02162721, 0.02636949, -0.02375752},
            {-0.12407608, -0.16554603, -0.11927528, -0.20844488, -0.23126124},
            {-0.01230146, 0.05310274, 0.02891989, 0.06437933, -0.03940058},
            {0.06055471, 0.01090069, 0.06846460, 0.16180710, 0.03232093}
        },
        {
            {0.00129646, -0.21505100, -0.12542255, 0.05773507, 0.05378120},
            {0.03553284, -0.14392221, -0.28172505, -0.27029327, -0.23790427},
            {0.00147061, 0.02304001, -0.01385474, 0.11210592, 0.07002208},
            {0.09519922, 0.14225213, 0.09445826, 0.07369849, 0.09461068},
            {0.07759287, 0.11698171, -0.00389047, -0.03066328, -0.02540707}
        },
        {
            {-0.06919489, -0.19051315, 0.04005584, 0.17476985, 0.00834644},
            {-0.13446604, -0.03353257, -0.20802280, -0.11629564, -0.06501784},
            {-0.04151606, -0.02390922, 0.00137525, -0.10780832, -0.07961059},
            {-0.00589132, -0.01999900, -0.07753698, -0.12653115, -0.00085258},
            {0.00748915, 0.06004688, -0.02948793, -0.03751352, 0.03578087}
        },
        {
            {-0.00537626, -0.01210057, 0.03906992, 0.08663640, 0.05053100},
            {-0.06193377, -0.16408487, -0.17661431, -0.02774131, -0.08100280},
            {0.03971107, -0.10995727, -0.16965477, -0.14829096, -0.05946141},
            {0.06193709, 0.07035561, 0.14562637, 0.11939612, 0.09742836},
            {0.08208756, 0.01407314, 0.04419181, 0.13107078, 0.06156241}
        },
        {
            {-0.07291415, -0.09186617, 0.05489395, 0.12818539, 0.10656516},
            {-0.19854426, -0.30236158, -0.30166069, -0.19181740, -0.24883527},
            {-0.00664158, 0.03521020, -0.15204054, -0.09089071, 0.01468276},
            {0.11978854, 0.10183328, 0.13980018, 0.10418054, 0.09589656},
            {0.06068440, -0.03576195, 0.06414177, 0.05042688, 0.00166017}
        }
    },
    {
        {
            {0.07204074, -0.12679030, -0.04608142, 0.23257835, 0.11203961},
            {-0.11016374, -0.10331839, 0.05803781, 0.02355699, -0.26673135},
            {-0.02601268, 0.14092523, -0.02866347, -0.05973360, -0.16087057},
            {-0.00025897, 0.05942093, -0.02292776, 0.04373344, -0.14955752},
            {-0.03596787, 0.03359926, 0.01079065, -0.01596350, -0.13347089}
        },
        {
            {0.16669780, 0.00178323, -0.09219764, -0.10625632, 0.14250423},
            {0.03397466, -0.03595781, -0.02183481, 0.17861326, 0.25017861},
            {-0.10428269, -0.03154447, 0.26684606, 0.23095150, 0.00461532},
            {-0.07087450, 0.21164449, 0.14820679, -0.07277557, -0.09400763},
            {0.06390429, 0.12732640, -0.12893866, -0.06836828, -0.18420567}
        },
        {
            {-0.05325409, 0.00665224, -0.13320906, 0.06614514, 0.05466965},
            {-0.13800380, -0.10989455, 0.14652918, 0.20223445, -0.02436356},
            {-0.07024731, 0.08981980, 0.08815438, -0.00016561, -0.03980741},
            {0.03315898, -0.01022690, 0.01877708, -0.03323093, -0.12990819},
            {0.01935586, -0.04325489, -0.07368471, -0.08657255, -0.09330278}
        },
        {
            {-0.05780412, -0.04796666, -0.10395016, 0.11763661, 0.14834835},
            {0.02863683, -0.00009402, -0.02858701, 0.06148982, 0.05792424},
            {-0.12918277, -0.02257725, -0.05016019, 0.01839657, 0.05924505},
            {-0.04054929, 0.03715533, 0.08342692, 0.16097334, 0.04054839},
            {-0.01461902, 0.06292602, -0.06139082, -0.06726630, -0.09197050}
        },
        {
            {-0.00829258, -0.10541877, -0.09656334, -0.00151718, -0.02296557},
            {-0.04724970, -0.12164628, 0.04055139, 0.01298149, 0.00500162},
            {-0.07996841, 0.10862667, 0.07148981, 0.04116503, -0.07385406},
            {0.05024204, 0.04781459, -0.04946003, 0.10467386, -0.10359588},
            {0.00927265, -0.10299917, 0.02465900, -0.06150793, -0.11365078}
        },
        {
            {0.09956406, 0.04622944, -0.08864476, -0.03294813, 0.06587724},
            {-0.08046249, 0.00194228, 0.16138674, 0.21141209, 0.03947173},
            {0.03484935, 0.26150796, 0.29186505, 0.02308844, -0.21609105},
            {0.16752318, 0.12781380, -0.06830588, -0.01820073, -0.11084897},
            {0.09530728, 0.00447518, -0.08444586, 0.01486422, -0.13008249}
        }
    },
    {
        {
            {0.07916612, -0.11826742, -0.27641970, -0.03830209, -0.03891951},
            {0.00185152, 0.07289446, -0.08996662, -0.01519414, -0.03811261},
            {0.13792786, 0.17304805, -0.09834454, -0.19454157, -0.07360757},
            {0.08827718, 0.18452157, 0.04804948, -0.06085498, -0.07391705},
            {-0.00020170, -0.01541870, 0.00442435, -0.05122501, -0.04866355}
        },
        {
            {-0.15531844, 0.13143149, 0.13799882, 0.05840781, -0.04073833},
            {-0.02029352, -0.03449351, 0.05556430, -0.10428268, -0.00759761},
            {-0.13324940, -0.08416399, -0.03632257, 0.00435107, 0.00178392},
            {-0.15402052, 0.00504682, 0.01369634, -0.10685549, -0.06852879},
            {-0.15356521, -0.04266572, -0.02943934, -0.07991178, -0.15226780}
        },
        {
            {0.03994575, 0.00484978, 0.06431465, -0.02352676, 0.00770178},
            {0.04476417, 0.04327357, 0.04349798, -0.01334281, -0.09058569},
            {0.06445750, 0.04607963, -0.02045597, -0.00536736, -0.00803049},
            {-0.11445933, -0.00043850, 0.03874891, 0.05624967, -0.00203503},
            {-0.06423565, -0.05106908, -0.09846092, -0.02747679, -0.13196386}
        },
        {
            {0.02846216, -0.03945993, -0.09161481, -0.05594840, -0.12047409},
            {0.03422474, 0.09677731, -0.03745031, 0.04155602, -0.00452460},
            {0.16142353, 0.18101013, 0.12389927, -0.00623485, -0.07135862},
            {-0.10407457, 0.11872467, 0.17194800, 0.04804160, -0.12484664},
            {-0.21211536, -0.01737759, -0.00310425, 0.04727797, -0.03668486}
        },
        {
            {0.03092081, -0.03490338, 0.02113097, 0.01110837, -0.02245739},
            {0.10895942, 0.10348148, -0.05772888, 0.07375378, 0.05255714},
            {0.10092193, 0.12153131, 0.06294785, 0.07363012, 0.02350792},
            {-0.01506609, 0.10219814, 0.04691820, 0.04586717, -0.06747931},
            {-0.18809408, 0.03421668, 0.11736014, -0.06240365, -0.08057085}
        },
        {
            {0.05167376, 0.15871802, 0.14469855, -0.00217257, -0.06390033},
            {-0.05642048, 0.01732595, -0.02222048, 0.05851230, 0.08722848},
            {-0.03565692, -0.06492490, 0.11228806, 0.06030685, -0.05024803},
            {-0.07407712, -0.08241321, -0.02682496, 0.05682698, 0.03476825},
            {-0.10003325, -0.10293891, -0.00865627, -0.02932381, -0.12637740}
        }
    },
    {
        {
            {-0.05859153, -0.08374335, -0.08801462, -0.05690399, -0.13537301},
            {0.02519764, 0.07515982, 0.08459547, 0.03799420, -0.12115134},
            {-0.06287394, -0.09104077, 0.05568375, 0.22926822, -0.03921793},
            {-0.09847667, -0.04713840, -0.13995095, 0.02272768, 0.04275510},
            {0.02190513, -0.16214280, -0.21340352, -0.13453265, 0.03710736}
        },
        {
            {-0.03434185, -0.10634564, -0.06003164, -0.00041154, -0.04703152},
            {-0.01446729, -0.03068058, 0.03285799, -0.07709949, -0.03743315},
            {0.02274576, 0.09673614, -0.06665317, -0.06224946, -0.04087137},
            {0.01471930, -0.11444862, -0.01280090, 0.00576329, -0.02254132},
            {0.00891112, -0.05099624, 0.00072832, -0.00547926, 0.03953121}
        },
        {
            {0.01756538, -0.01817133, 0.04867831, 0.05356561, -0.06569281},
            {0.02892491, -0.02858027, 0.03221622, 0.06442335, 0.01361211},
            {-0.04546649, -0.01462931, -0.06420819, 0.07026461, 0.07534483},
            {-0.04084589, -0.07107797, -0.13417481, 0.07853641, 0.04551054},
            {-0.02988136, -0.05465151, 0.01262270, -0.03051828, -0.15999390}
        },
        {
            {-0.20337647, 0.06783465, 0.01326880, 0.07067966, -0.14031406},
            {-0.06501656, 0.07137302, 0.09414037, 0.17569548, 0.16260888},
            {-0.12003354, -0.10431153, 0.00630111, 0.21055220, 0.25072876},
            {-0.07837503, -0.00245063, -0.12446517, 0.08739608, 0.20493546},
            {0.06917775, -0.06987398, -0.13438351, -0.07569035, 0.03769926}
        },
        {
            {0.00890903, 0.03694118, 0.00722448, -0.09119999, -0.09734274},
            {0.04083139, 0.05741725, 0.13774501, 0.05469235, -0.01697606},
            {-0.11303961, -0.03377746, 0.00876435, 0.13202533, 0.15440036},
            {-0.11942731, -0.10456710, -0.02798998, 0.10392783, 0.07210737},
            {-0.06515457, -0.08731446, -0.04743401, -0.09180214, -0.07726859}
        },
        {
            {0.05769262, 0.02105584, -0.00526112, -0.02552861, 0.10101757},
            {0.02969191, 0.09840176, 0.12481589, 0.06764486, 0.02688366},
            {0.11225710, 0.04198434, 0.01031443, -0.00839754, 0.02118990},
            {-0.03268231, -0.02196855, 0.10432325, 0.04445443, 0.08747287},
            {-0.01656342, 0.07685891, 0.01026830, 0.01581939, -0.00274837}
        }
    },
    {
        {
            {0.00151341, -0.13870759, 0.09094691, -0.04798687, -0.14873572},
            {-0.11825264, -0.00824888, 0.25795177, 0.04488913, -0.20412141},
            {-0.15025720, -0.00458003, 0.20894621, 0.08885129, -0.19675401},
            {-0.19154534, -0.07149253, 0.24308643, 0.10574996, -0.29200175},
            {-0.05548031, -0.04494015, 0.24830572, 0.10928890, -0.24780099}
        },
        {
            {0.08866762, -0.13706984, -0.04518191, 0.08790302, -0.04217582},
            {-0.00430163, -0.21931073, -0.06667472, 0.14002639, 0.08319535},
            {-0.00871434, -0.21393786, -0.03535440, 0.19010992, 0.03021955},
            {0.06603125, -0.21616620, 0.06482756, 0.08114547, -0.02829741},
            {-0.06653817, -0.16182962, 0.07809894, 0.09488872, -0.15181254}
        },
        {
            {-0.02871647, -0.15797214, -0.00072435, 0.04462802, -0.01401834},
            {-0.02240450, -0.10002340, -0.01833463, 0.09775446, -0.10961306},
            {-0.00038218, -0.11031830, 0.12029485, -0.05744007, -0.09184496},
            {-0.16107067, -0.02342967, 0.08885489, -0.01748771, -0.01465201},
            {-0.13299102, 0.04201933, -0.01333963, 0.09121245, -0.04023366}
        },
        {
            {0.01039365, -0.15694825, -0.02613335, 0.06918142, -0.09947357},
            {0.02510398, -0.12291788, 0.00220424, 0.12893008, -0.05371168},
            {-0.03596240, -0.13270147, 0.20440872, 0.22570860, -0.14454792},
            {-0.07453816, -0.07557362, 0.24350329, 0.22814293, -0.13877429},
            {-0.09486755, -0.07622427, 0.04427555, 0.14467537, 0.06715918}
        },
        {
            {0.05384075, 0.03872349, -0.00357161, -0.03632189, -0.05390178},
            {0.00917269, -0.10342237, -0.03160442, 0.04450641, -0.13216302},
            {-0.01692723, -0.08648124, 0.09292585, 0.02508928, -0.08754845},
            {-0.10870196, 0.00586185, 0.06755803, 0.11309641, 0.01040964},
            {-0.12003946, 0.05376526, 0.06893943, 0.02854506, -0.07417826}
        },
        {
            {-0.11942908, -0.13384005, -0.15647623, 0.06336782, 0.03366644},
            {-0.05994130, -0.11395881, 0.09211997, 0.00175546, -0.12296725},
            {-0.05442305, -0.09532696, 0.05382224, -0.04560826, 0.02405890},
            {-0.06479204, -0.14258613, -0.13373427, -0.02999335, -0.07253805},
            {-0.03935550, -0.08948053, -0.12178026, -0.06555353, -0.04773622}
        }
    }
};

double conv2_biases[16] = {0.01859704, -0.05960979, 0.09259352, -0.10182261, -0.07021202, 0.01146582, -0.07455751, 0.02115810, -0.09627705, 0.07395595, 0.10846297, 0.15614012, -0.16195413, -0.07046695, -0.05025848, 0.02540163};

double fc1_weights[120][256] = {
    {0.09907323, -0.06586961, 0.07286240, 0.03041882, 0.08848808, 0.02539530, 0.04715209, -0.04309864, 0.12688468, 0.04136033, -0.05349198, -0.08841117, -0.00437346, -0.00284840, -0.01303104, -0.04386047, -0.21993232, -0.10025573, -0.04735292, -0.12114776, 0.05166886, -0.01339366, -0.11622644, -0.13787875, -0.00618376, 0.07805004, 0.00295980, 0.01255018, 0.04057126, 0.01046705, 0.05382735, 0.07908187, 0.32008353, 0.10759427, 0.00378517, 0.04771756, 0.01990627, -0.13471049, -0.03315116, 0.05861668, 0.01923751, -0.13691325, 0.04285389, 0.04847357, 0.06050500, 0.00196647, -0.01327260, -0.10422810, -0.04929136, 0.04989839, 0.03888303, 0.02934137, -0.03602057, -0.05873911, 0.00525175, -0.00645125, 0.00375858, 0.02214488, 0.00395785, -0.07158715, 0.02945847, 0.05992499, 0.06432172, 0.00629057, -0.06458096, 0.07317314, 0.10622107, 0.00499509, -0.14648986, -0.00422071, 0.02811187, -0.13420448, -0.13114664, -0.03443868, -0.08386011, 0.03443979, -0.06425940, 0.04058774, -0.11965659, -0.00113784, -0.05917892, 0.11793853, 0.10614948, -0.10270675, -0.04633859, 0.00836952, 0.06448968, -0.03843021, -0.09931372, -0.08756442, 0.00291292, 0.10190901, -0.05543271, 0.02519594, 0.00941547, -0.04512258, 0.00180317, -0.04004962, 0.00972406, 0.00700791, 0.01644789, 0.00181692, 0.05878226, -0.04890499, 0.01731231, 0.01051386, -0.00492825, 0.04810498, 0.03362868, 0.05861546, -0.04704460, 0.01586113, 0.02297756, 0.12341688, 0.04390438, 0.01166537, 0.03013670, -0.03387138, 0.05361893, 0.02818227, 0.00540695, -0.01353700, 0.04173103, -0.04186241, 0.07371732, 0.03208315, 0.07414888, 0.08769088, -0.16866201, -0.08869085, 0.03100399, -0.06973004, 0.00432055, 0.02746885, 0.20105411, -0.11259999, -0.00064641, -0.07100777, 0.04243854, -0.01599012, -0.10174218, 0.09973878, 0.09081721, 0.04192964, -0.03299696, 0.08576974, 0.05457753, 0.04291277, 0.02925389, 0.09178002, -0.04223459, 0.04947925, 0.00232913, -0.05493602, -0.09705503, 0.00948236, 0.00522455, 0.06804599, 0.05022650, 0.07655480, -0.23715472, -0.09483366, -0.12245367, -0.05702058, 0.15457875, -0.03070210, 0.05096620, -0.02959154, 0.23700377, 0.13898823, 0.02994948, 0.03431259, 0.10061309, 0.15682404, 0.11210580, 0.02922408, -0.10909322, -0.11380022, -0.09052378, -0.00057634, 0.23325455, 0.12025937, 0.08491121, 0.05653731, 0.23001790, 0.07618078, 0.04028410, 0.08909092, 0.06252059, 0.09692691, -0.01719195, 0.23486753, -0.16908622, 0.01427708, 0.03459284, 0.00626996, -0.04390919, 0.05582067, -0.00457722, -0.07316936, -0.06887799, -0.09284387, -0.01772521, 0.00902740, 0.01971063, 0.10841288, 0.04694045, -0.08457819, -0.08480433, 0.02326282, 0.07477038, -0.04569542, -0.12884235, -0.02227785, -0.03645538, 0.00123340, -0.06440896, 0.01186371, 0.01859315, -0.03079008, 0.02722691, 0.03451105, 0.00740828, -0.03838093, 0.06621292, 0.12361106, 0.02420323, -0.02237517, 0.00213447, -0.03089408, 0.01589492, -0.02084593, -0.00846756, 0.01625347, 0.03517135, -0.04949741, 0.01289561, 0.05036719, 0.03615174, 0.02004775, -0.07237441, 0.00152032, 0.03081551, -0.08071860, -0.07490423, -0.07107335, 0.06069761, -0.00008515, 0.01446251, -0.01256684, 0.02692631, 0.09203067, 0.03461376, 0.02796030, -0.05401031, -0.01031634},
    {-0.12569527, 0.01251064, 0.12239064, 0.02918234, 0.03326419, -0.03953982, -0.01178715, -0.06091629, -0.00104807, -0.09545837, -0.12438679, -0.09941838, -0.05903831, -0.07130998, -0.00269965, 0.01743589, 0.05906298, 0.03376500, -0.02105966, -0.01969741, -0.07536891, -0.14614384, -0.17807741, -0.20206676, -0.01959596, -0.06492767, -0.00384138, 0.04294178, 0.06254385, 0.08723630, 0.01642477, 0.00356875, -0.00634866, 0.10660965, 0.01482968, -0.02480356, 0.01346886, 0.07471543, 0.00118132, -0.06205972, 0.02472781, 0.07165408, 0.01506151, 0.05177886, 0.01890530, -0.05392705, 0.03193347, -0.07772837, 0.04988546, 0.00226193, -0.00306851, -0.09501517, 0.02601193, -0.00467673, 0.10509732, -0.00213566, 0.06063562, 0.02111054, -0.11552066, -0.12085994, -0.00285550, -0.02721687, 0.00619585, -0.00455089, 0.07097517, 0.06320557, -0.14250971, -0.23208851, 0.00150905, 0.00980074, 0.14919773, -0.02710782, -0.04200764, 0.04548641, 0.16940399, 0.08428732, -0.07853238, 0.02087544, 0.08811015, -0.05473379, 0.03491644, 0.07727627, -0.00887034, -0.04318077, 0.01888280, 0.05833364, 0.14516513, -0.05250289, -0.01186477, 0.08827856, 0.08798619, 0.00911881, -0.02639024, 0.03174056, -0.07082341, -0.00923158, 0.02315510, 0.05899251, 0.03259193, -0.03283801, -0.05617210, 0.05852515, -0.03723219, -0.04586308, -0.00194553, 0.02014095, -0.00744830, 0.03112034, 0.04604433, 0.02855897, -0.05214980, 0.01944990, 0.04282261, 0.12250429, -0.01075227, 0.05389526, 0.02408757, -0.09455896, 0.08723365, -0.03115698, -0.06426150, -0.15572387, 0.00028589, 0.04686591, -0.05244604, 0.01633270, 0.01098142, -0.01590731, -0.02341384, 0.11446431, -0.01382187, -0.00677802, -0.02986324, 0.07669489, -0.15886544, -0.04991519, -0.00493181, 0.01373520, -0.01188556, 0.16084716, 0.04203083, -0.07553328, -0.05844318, 0.03608448, 0.03676894, 0.05865203, 0.07541016, 0.15225588, -0.09689064, -0.13310331, -0.08884091, 0.07254989, -0.12168825, -0.17315498, -0.07406298, 0.01481084, -0.04545179, 0.06791911, 0.04171496, 0.12089408, 0.07254199, 0.05813590, -0.00361431, -0.03024352, 0.02897545, -0.09482739, -0.02751924, -0.07486972, 0.06686065, -0.03729187, -0.08818973, -0.11752691, 0.02704727, 0.00792691, 0.00692545, -0.04520904, 0.10215595, 0.01629804, -0.03231490, -0.06929636, 0.02996066, -0.08891249, -0.15691538, 0.02552075, 0.03457753, -0.03585629, 0.11469816, -0.00528674, 0.05606825, 0.01007658, 0.07396922, 0.14238587, 0.09963259, -0.00229596, -0.00635010, -0.07751271, 0.03823291, 0.00308188, -0.19711758, -0.08267906, 0.06758282, -0.07596858, -0.08388854, -0.02657655, 0.02243182, 0.02797724, -0.01995845, 0.07224233, 0.08871978, 0.04994503, 0.02960422, 0.06125862, 0.09892876, 0.01395215, 0.06486585, 0.06517914, -0.04035350, -0.07012898, -0.11356879, -0.13392797, -0.04304853, -0.05429370, -0.03949792, -0.01069359, 0.03063034, 0.00529996, -0.05742213, 0.02924579, -0.06645754, 0.02015712, 0.00723271, -0.00997250, 0.00082635, 0.00903995, -0.07334731, 0.00354875, -0.03122751, 0.01240924, -0.03084146, 0.02063499, 0.08944665, 0.15956561, 0.11467423, -0.00795807, 0.06762736, 0.07692547, 0.00133057, 0.01898218, -0.02905758, -0.04595968, -0.00895049, 0.01267908, 0.07182644, 0.06516591, 0.01014564, -0.07264166},
    {0.00781836, 0.16016062, 0.12591122, 0.09147722, -0.16784717, 0.00102680, 0.00737029, -0.04918718, -0.09967192, 0.03305081, -0.00879486, -0.10688651, 0.02518543, 0.00319729, -0.08452898, -0.02819034, 0.08100118, 0.02710098, 0.01578456, 0.02988157, -0.15602784, 0.08003742, 0.11937484, -0.04275133, -0.11064555, -0.08828768, 0.01679525, -0.11121014, -0.09964924, 0.11573222, 0.19653669, 0.14326803, -0.08112346, 0.04228853, 0.01494829, -0.14091142, -0.00249265, -0.04987669, 0.01256652, 0.06654201, -0.03146702, 0.03317841, -0.01592828, -0.03962326, -0.00786169, 0.01302180, -0.04220458, 0.02479940, -0.11241202, -0.02803021, 0.04664329, 0.14020801, 0.02748856, 0.08837555, -0.01707275, 0.05831368, -0.04990949, 0.09323689, 0.08308659, 0.00937202, -0.04014602, 0.03907344, 0.00596466, -0.05369268, -0.02192443, -0.03985560, -0.17603391, -0.16899057, -0.02420871, 0.00447790, -0.06201103, 0.08762082, 0.01148560, -0.01669539, -0.06893926, 0.00049813, 0.02603639, 0.05032662, 0.05000370, 0.15126108, 0.00937390, 0.02718586, -0.07037725, 0.06631070, -0.02353643, -0.05389819, -0.08981588, 0.12422625, 0.03948215, -0.02901890, 0.02201266, 0.05793284, -0.06566755, -0.09611709, -0.11018333, -0.05819679, 0.02465056, -0.04338907, -0.00432412, 0.00679188, -0.00083371, -0.00825116, -0.02764793, 0.01246821, -0.00111970, 0.05210125, 0.05251012, -0.01430536, -0.03511297, -0.04163266, 0.03508466, 0.00204304, -0.07148942, 0.03983871, -0.04246117, -0.03619458, 0.05885197, 0.09959272, 0.00533041, -0.01792387, 0.09196114, 0.03214420, -0.04353455, -0.11994296, -0.02475362, -0.09053250, -0.08385926, -0.21488969, 0.07758579, 0.03934836, -0.11536212, -0.27495995, -0.04898936, 0.00376826, 0.03645880, -0.00496333, 0.06028088, -0.02141825, 0.02061038, -0.12298778, 0.03344276, 0.09420605, 0.05353462, -0.00099575, -0.03005132, 0.07582888, 0.01981000, 0.06522967, -0.00024261, 0.04488191, 0.01137603, -0.01091396, -0.01504681, 0.04907607, -0.10441115, -0.16146785, -0.01408947, -0.05763426, -0.05794111, -0.12308582, -0.04407253, -0.09440883, -0.03878244, 0.02428201, -0.14398798, -0.08259330, -0.02148554, -0.09128907, 0.06180824, -0.04725123, -0.00403730, -0.02470101, 0.01579925, 0.06937086, -0.02751229, 0.12896410, 0.02944981, -0.01910711, -0.05614343, -0.01409795, -0.26989758, 0.00159129, -0.10766039, -0.21138693, -0.02117213, -0.03291586, -0.10516809, 0.05434779, 0.09907425, 0.12828888, 0.01798260, -0.08507326, 0.01449907, 0.05958741, -0.01659219, 0.00368631, -0.07057685, -0.06466582, 0.04929040, 0.00440107, -0.04649878, 0.10983435, -0.05023028, -0.01655809, -0.08445570, -0.00910095, 0.04819270, 0.05623387, -0.01663143, -0.00860381, 0.06513375, 0.08257464, -0.00336256, 0.00865041, 0.08242774, -0.06436727, -0.04621793, -0.08952849, 0.07053393, 0.02084807, 0.06108157, -0.08932488, -0.06335742, -0.01167237, 0.04632616, 0.00037321, 0.11748700, 0.06039029, 0.11371318, 0.08754364, -0.05564746, 0.04539182, 0.02748565, -0.02935950, 0.07966558, -0.09508348, 0.03361420, 0.01163328, -0.08275724, -0.05894883, 0.02988914, -0.07378626, -0.18531251, -0.13478015, 0.09865107, 0.07566793, -0.05894006, -0.01025088, 0.06129181, 0.00182184, 0.03415167, 0.00261179, 0.01759037, 0.04071582, 0.02558206, 0.06908303},
    {-0.06491482, -0.02140602, -0.05144014, -0.07006905, -0.03961943, -0.03582012, -0.04062124, -0.02183451, 0.00478262, -0.00033335, 0.03524947, -0.01976697, 0.02903915, -0.05974207, 0.00042884, 0.02923955, -0.07993230, -0.02359130, -0.01187830, -0.00600865, -0.00283351, -0.03567794, -0.04386190, 0.03272857, -0.03382190, -0.00391384, 0.03238530, -0.02869889, 0.02186384, 0.01316186, 0.03704091, 0.02911546, 0.03634390, -0.03449174, -0.04969234, 0.00739334, 0.01369685, 0.02935249, -0.00035434, 0.00181550, -0.00226700, 0.02234964, -0.02842976, -0.01606155, -0.01377451, -0.01363339, -0.07187395, -0.06565590, -0.00354816, -0.04082932, -0.06141610, 0.00969709, 0.01341909, -0.06688249, -0.07009750, -0.01958958, -0.02414199, 0.01589228, -0.06668406, -0.04003241, -0.01082746, -0.04921747, -0.03547357, -0.02936673, 0.03507416, 0.01601900, -0.02632522, 0.07726501, 0.02816958, -0.05038297, 0.03460737, -0.03923917, -0.02496627, 0.00346358, -0.02796891, 0.03390318, -0.04154202, 0.01455537, 0.01158980, -0.00731570, -0.01816003, -0.02886653, -0.02471452, 0.00998113, -0.01337079, -0.01494768, -0.07250132, -0.05492867, 0.02766080, -0.00389699, -0.04411601, -0.01027103, 0.03438356, 0.03727600, -0.04809590, 0.03404289, -0.04054195, -0.02626106, -0.05720621, -0.03000745, 0.01028525, -0.01045363, 0.04621127, -0.05340874, 0.03770010, -0.04017337, -0.00911552, -0.01503146, -0.01315932, -0.01221827, -0.04397901, -0.04502463, 0.03904537, -0.04174040, 0.01597870, 0.01394727, -0.04141663, -0.01420579, 0.05045881, -0.05025341, -0.05894282, -0.03965762, -0.02310967, 0.00411557, -0.04583118, -0.01330079, -0.01971249, 0.02337026, -0.01287969, 0.04162597, -0.06617245, -0.06209280, 0.02747741, 0.00317776, -0.02988566, -0.00181225, -0.01046162, -0.05391359, -0.08504727, 0.03835279, -0.03556611, 0.00114469, -0.03977012, -0.04299644, 0.02396750, -0.03286311, -0.07109122, -0.05638968, -0.05871506, -0.04432357, -0.06801242, -0.02102590, -0.06545753, 0.03478524, 0.03354617, -0.05772831, -0.03878035, -0.00072957, -0.07491896, 0.02508442, -0.07426637, -0.03639071, -0.03004571, 0.01094029, 0.00060388, 0.03190511, -0.03968186, -0.02701639, -0.05923764, 0.02716102, -0.00347116, 0.00827259, -0.01557414, -0.00711948, 0.00751988, -0.04892165, -0.05175747, -0.02705549, -0.07734977, 0.02322164, -0.04101398, -0.06699421, -0.07705890, 0.00284536, -0.03031152, -0.01143604, 0.04289593, -0.00131030, -0.02414246, -0.04014191, 0.06199663, 0.02442898, 0.01696495, 0.02306053, -0.06516206, -0.05598094, -0.05965154, -0.02637696, -0.05299285, -0.01207769, 0.03925853, -0.02721986, -0.06695113, 0.03952110, 0.03337900, 0.03545019, -0.03470884, -0.00301630, -0.01915360, -0.05176676, -0.04271211, 0.01595145, 0.01458538, -0.05535042, 0.02345190, -0.08195935, -0.00060038, 0.01145494, -0.06781022, -0.07091977, -0.05607830, -0.02394291, -0.04367816, -0.06582739, -0.07266791, -0.04193190, 0.03036770, 0.01121060, -0.03568842, 0.03960044, -0.04983584, -0.02866880, 0.03773970, 0.03061853, -0.07469290, 0.03750135, -0.07817133, -0.03674798, 0.02913650, -0.04840120, -0.03598682, -0.01400997, 0.03066846, 0.00259380, -0.02654625, 0.01878382, 0.00436194, 0.05137417, -0.01470974, -0.06681477, 0.01602686, -0.04045492, -0.05295338, -0.06469521, 0.03782091, 0.00849480},
    {-0.10407709, -0.14912975, -0.12441947, -0.12556969, 0.08464368, 0.07034039, 0.10240368, 0.07068768, -0.17399295, -0.09836133, -0.13382781, -0.03027127, -0.02790824, 0.02991759, 0.05954746, 0.03765189, -0.00486238, -0.08109671, -0.02095616, 0.06309466, -0.07112704, -0.09953200, -0.05974842, 0.02286736, -0.09301136, -0.00051614, -0.01733570, 0.07037231, 0.03221441, -0.02827313, 0.03418683, -0.16039470, -0.08415060, 0.03643689, 0.12310003, -0.02079503, -0.06828488, 0.03070764, -0.01156858, -0.13147363, 0.07251622, 0.03961469, 0.00302014, -0.03049273, -0.03838162, -0.12106469, -0.03131173, 0.07687897, 0.03632699, -0.07239822, -0.03412087, -0.05675668, 0.15478009, 0.20382521, -0.06144879, 0.07916073, 0.02735993, -0.00860702, -0.01257723, 0.04257119, -0.03794410, -0.07412407, -0.03668869, -0.00920814, -0.07519909, -0.15056066, -0.00033665, 0.01413837, -0.08605517, -0.11164322, -0.04750047, -0.07178047, -0.02521504, 0.03159352, 0.00190415, -0.02351150, -0.04497953, 0.01332959, 0.04047672, -0.05163319, -0.05237023, -0.07021187, -0.06173155, 0.00537701, -0.05502998, 0.04358784, 0.04630089, 0.05175047, 0.00731456, -0.07555977, -0.00564098, -0.09168623, 0.03165405, 0.01961741, -0.04914655, 0.00098019, -0.03893516, -0.06132035, -0.01731535, 0.04957931, -0.01567912, 0.06244448, -0.03840255, 0.06415418, 0.05108963, -0.01463092, -0.02755101, 0.00010297, -0.00896113, 0.05186321, -0.04331826, -0.00004120, -0.05308618, -0.02346221, 0.02771208, -0.00834828, 0.06671364, 0.14555968, 0.09448116, -0.00557156, -0.06170536, 0.03280300, -0.03193869, 0.02381920, -0.03381405, -0.06926815, -0.12483621, -0.02689821, -0.04760762, -0.05695234, -0.02029314, 0.20226353, -0.02179961, -0.09245086, -0.02750236, 0.05579681, -0.02539846, -0.01602806, -0.11034019, 0.06653477, 0.06381246, -0.04302938, -0.04039455, 0.00808663, -0.02634250, -0.05318485, -0.03863881, 0.00993519, 0.03107467, 0.09487580, 0.06855294, 0.00964340, -0.01221250, -0.03724799, -0.03401910, -0.02424135, -0.01255893, -0.02787945, -0.03961520, -0.12747751, 0.08774538, 0.06592543, -0.04411902, -0.04361686, 0.07955401, 0.13391106, 0.09517711, 0.02705570, 0.00773292, 0.00383521, -0.02111568, -0.00458809, -0.06207496, -0.05425800, -0.14704783, -0.06229756, 0.07035687, 0.05466268, 0.15367137, 0.12027745, -0.12267006, -0.05604833, 0.03969548, -0.01308506, -0.02054266, 0.05073337, 0.02110446, -0.09845024, -0.10345524, -0.07454234, -0.05403025, -0.09221361, -0.05054915, -0.08605403, -0.16728276, 0.00953213, -0.00807235, -0.13422371, -0.00918609, 0.04522847, -0.07336806, -0.08693676, -0.02989607, 0.04108400, -0.12952903, 0.02403500, -0.01312151, 0.02238329, 0.01957177, 0.01287503, -0.06822766, -0.09741601, 0.07708734, 0.07810270, 0.00342585, -0.07515783, 0.06674625, -0.09985919, -0.01300444, -0.03549769, -0.01649889, 0.06267294, -0.06043956, -0.03790899, -0.00381679, -0.03368777, -0.02803225, -0.10661589, 0.00568371, 0.08320636, 0.02690773, -0.00841900, -0.07463054, -0.01892132, 0.04564012, 0.05113516, -0.07517803, -0.08123985, -0.05761355, -0.04497069, -0.07879129, -0.03969382, -0.11520649, 0.02989601, -0.04207142, -0.07312186, -0.09971094, 0.05034523, -0.08099458, 0.04236813, -0.12417649, 0.01650373, 0.01856957, -0.01629237, 0.02509659, 0.06853044},
    {-0.11755751, -0.07610267, -0.00264221, 0.05814763, 0.02864043, 0.02516193, 0.10393890, 0.12369466, 0.13512790, 0.04680726, 0.04300040, 0.01520584, -0.09324307, -0.14820214, -0.02762099, -0.02957344, -0.07546120, 0.00434206, -0.01314721, -0.01933641, -0.00326422, -0.03907102, 0.12909977, 0.01227417, 0.14546879, 0.04455807, -0.03913441, 0.00981149, 0.05202042, -0.02595886, 0.15317710, 0.17588213, 0.07923518, -0.04482486, 0.06242963, 0.17436673, -0.02090270, 0.01585326, 0.10391007, 0.04504795, 0.00646044, -0.00649097, 0.00612887, -0.02955289, -0.00736044, 0.02906674, 0.03056549, -0.06651138, 0.09370701, 0.10216857, -0.09851206, -0.01550057, 0.08230936, 0.00333709, -0.07022157, -0.04129010, -0.11206452, 0.08481704, 0.10388783, 0.05857564, -0.06187999, -0.06325550, 0.14759482, -0.00775748, 0.02525842, -0.01282799, 0.09765739, 0.09577182, -0.01990885, 0.02080318, 0.07780635, -0.03114666, -0.01385758, -0.00284559, -0.10121766, 0.01509860, 0.00664382, 0.00961944, 0.03016333, 0.02539742, 0.04931073, -0.03551611, 0.00798968, 0.06015294, -0.01217898, 0.05036997, -0.02214107, -0.01200623, 0.05890575, 0.14536552, 0.04912609, 0.02914931, 0.05516483, 0.03793147, 0.04749244, -0.20102866, 0.02423319, -0.05639581, -0.04376766, 0.00082205, -0.04019805, -0.00329452, -0.05536193, -0.04835287, 0.05808518, -0.04504245, -0.04642002, 0.00234105, 0.01065126, -0.05524617, -0.01169296, 0.00819307, -0.04168544, -0.01641721, 0.03049072, -0.00044406, 0.09917360, -0.05449601, 0.00176911, 0.08159743, -0.06400906, -0.06034180, -0.02644952, 0.03919012, -0.04500343, 0.02670054, 0.07898329, -0.08054711, 0.02218912, -0.06647484, 0.00959343, 0.16406526, 0.00507116, -0.00065758, 0.10804508, 0.01965536, 0.09459852, -0.01823309, -0.07286663, -0.09554666, 0.09764580, -0.08076288, 0.06296663, 0.11015123, 0.07687350, 0.02769871, -0.07009426, 0.08374928, 0.11700495, -0.06179876, -0.05522130, 0.03571361, -0.04092889, 0.01124726, 0.06912300, 0.04119378, -0.05403993, -0.03983447, 0.04304762, -0.03332198, -0.05905240, -0.01535535, -0.06844699, -0.12423180, 0.03154282, 0.07552837, -0.11160016, -0.04023925, -0.09601279, 0.00902770, 0.18410563, 0.16473240, 0.00301165, -0.04547504, 0.07147687, 0.15507835, -0.05338039, -0.09118783, -0.06112616, 0.03676889, 0.05401301, -0.03741597, 0.07957038, 0.04018445, 0.10100723, 0.00226416, -0.07127220, 0.11566466, 0.09752969, 0.01431205, -0.02357768, 0.01456203, -0.05941736, 0.00022799, -0.04479263, 0.03077394, 0.06198687, 0.08461533, 0.04038361, 0.02019948, 0.01497858, 0.02828236, -0.02566246, 0.02619698, -0.02854493, 0.01995960, -0.00327361, 0.11314870, 0.10296025, 0.05943913, -0.04431967, -0.06774756, -0.04201642, 0.07528397, -0.07896345, -0.04165022, -0.08574632, -0.04663562, 0.09978277, -0.01907143, -0.14663924, 0.05083695, 0.10905682, 0.08264548, 0.12296768, -0.05217614, -0.09260003, -0.12438643, 0.07564326, -0.03824087, -0.00752118, -0.05513170, 0.03424547, 0.02902095, 0.02457391, 0.01734837, -0.08717708, 0.02554871, 0.07904108, -0.05818583, -0.02057778, 0.09591293, 0.07948629, -0.02027316, -0.06951613, -0.04577592, -0.05217773, 0.01984931, -0.04533934, 0.05826306, -0.06102665, 0.10054715, 0.02740358, 0.01022378, -0.04374669, -0.01585986},
    {-0.00157765, 0.03959245, 0.10156999, 0.02511592, -0.18914101, -0.01445336, -0.01604396, 0.12331976, 0.12688513, 0.11792664, 0.05647157, 0.04905631, 0.01325622, 0.02835362, 0.01646318, -0.09977725, 0.05526593, 0.07884233, 0.06828783, 0.10652051, -0.01287086, -0.04683494, 0.08594871, 0.03997938, -0.00201865, 0.01981494, 0.03718764, 0.01960513, 0.04062314, 0.01150260, -0.17837845, -0.15059298, -0.08323307, 0.05802617, 0.00305319, -0.00677332, -0.08144731, 0.13210277, 0.06034202, -0.04259399, -0.00344030, 0.09033026, 0.08595785, 0.08180349, 0.03470146, -0.01941667, -0.00377227, 0.08322813, 0.00538574, 0.00681187, -0.01842329, -0.01582084, 0.04316103, 0.01483084, -0.01349141, -0.07283438, 0.07538429, 0.06908585, -0.08118232, -0.06948683, 0.04560966, -0.00225325, -0.02044908, 0.00568921, 0.02177700, 0.06564042, 0.04557128, -0.02270827, 0.00251517, 0.02837362, 0.02322892, -0.03195772, -0.06034358, 0.01018475, 0.06474248, 0.00494045, 0.06971847, 0.09695973, 0.10366569, -0.00319226, 0.04069626, -0.00052073, 0.04464824, -0.00771618, -0.09575483, 0.00793607, -0.00963369, -0.08370671, -0.04009457, -0.01094587, 0.00276137, 0.10055340, 0.09268340, 0.16794190, 0.07209308, 0.01319194, 0.04118519, -0.04032439, 0.01424217, 0.01544254, -0.04188444, -0.00068178, 0.06065490, -0.03431093, -0.01769273, -0.06168202, 0.01558360, -0.04782764, -0.01429334, 0.00155992, -0.04097473, 0.03040868, -0.03803227, -0.01112254, 0.04070400, 0.12524502, -0.05924314, 0.02118215, -0.06480090, 0.04966086, 0.11827039, -0.02189590, -0.01726023, -0.06543781, -0.11231131, -0.04152829, -0.02287826, -0.02742524, 0.00814085, 0.00611151, 0.05902690, -0.00137591, 0.00477299, 0.00679546, -0.01285689, 0.04028899, -0.03411542, -0.03030178, -0.02319701, -0.00367567, 0.19054984, 0.08434076, -0.03930582, -0.00863713, -0.14195803, -0.07973782, 0.09708101, 0.10943455, 0.01290834, 0.05625243, 0.02042605, 0.06680898, 0.15950085, 0.04413977, 0.09058059, -0.05415589, -0.01911692, -0.08963071, -0.05763591, -0.06066398, 0.08734532, 0.04544188, 0.03971349, -0.09014327, -0.05571244, -0.02217256, -0.08261818, -0.00608216, 0.00355324, 0.01175728, -0.09319743, -0.05924662, -0.13594501, -0.05472989, -0.10927586, -0.09461838, -0.04925995, -0.02179495, 0.00945507, 0.01583659, -0.09733096, 0.02282690, -0.06051580, -0.06409289, -0.00624271, -0.03842687, 0.04904165, 0.03883203, 0.04747250, -0.08051254, -0.05247707, -0.09682124, -0.00889853, 0.02926917, 0.07702280, 0.13790636, 0.02874645, -0.03785654, -0.10544395, 0.03938128, -0.04030989, -0.03335449, -0.00702696, -0.07627574, -0.00405530, 0.10751032, -0.04667867, -0.05654502, -0.02616699, -0.02153541, 0.01438822, -0.01889933, 0.03693788, 0.03063309, 0.00827114, -0.03483724, 0.04703233, 0.05384572, -0.07680734, 0.01089516, -0.05013791, -0.09401843, -0.06520321, 0.01237460, -0.04435442, 0.01240489, -0.07066254, -0.06433808, 0.04599153, -0.05356746, 0.05562354, 0.00582673, 0.10713273, 0.04105340, -0.03740141, 0.03465939, -0.06122511, -0.00867052, -0.01685718, -0.03144887, 0.07327925, 0.05078632, 0.12086524, 0.06373602, 0.03725938, 0.02882303, -0.05169284, 0.02294314, 0.06878865, -0.09935292, 0.08306704, 0.03282179, -0.00845064, -0.04848899, 0.05549315, 0.04373054},
    {-0.11389250, -0.10830065, -0.09557871, -0.03145471, -0.11117227, -0.03021834, -0.14462398, -0.03714342, -0.01396805, -0.00536144, 0.01895878, 0.11869642, 0.07857842, 0.06141584, 0.06478979, 0.00361182, 0.07591596, 0.06649943, 0.02463027, -0.05885303, 0.05582156, 0.01051289, -0.04409150, 0.01927672, -0.13971843, -0.04903121, 0.10228193, -0.02694857, -0.00153915, -0.02588547, -0.08285389, -0.19405353, 0.04654074, -0.12009922, -0.07189471, -0.09360480, -0.21696158, 0.02562821, -0.02058169, -0.06373395, 0.03609075, 0.00285315, -0.16937982, 0.06111706, 0.07096408, -0.02184738, 0.00708172, 0.02672293, 0.06283893, -0.05495885, 0.07806557, -0.03253602, -0.01074536, -0.01636789, -0.02980316, -0.00127837, -0.00501413, 0.04588453, -0.06479143, 0.03211889, 0.03074599, 0.07777854, 0.00647255, 0.04317668, 0.10494038, 0.10589731, 0.23000105, -0.04061191, 0.12473658, -0.02181290, 0.15569207, 0.05139497, -0.05272284, -0.01552106, 0.13617383, 0.02421911, -0.10880074, 0.02597741, 0.02903236, -0.02293467, 0.06326366, -0.06896906, -0.02850480, -0.05270244, 0.01065387, -0.16655897, 0.01248947, -0.14859286, -0.06998596, -0.04586124, -0.10630824, -0.05992405, 0.02136151, 0.10730638, 0.15053493, 0.02430351, -0.02371389, -0.04286135, -0.03691974, 0.02397593, -0.05249928, -0.03178046, -0.06059367, 0.02375721, -0.00386218, -0.03889725, -0.00707363, -0.03174619, 0.04784588, 0.00863343, 0.04924094, -0.03489409, -0.09228697, -0.05559801, -0.07143984, -0.11944494, 0.00743722, -0.03729419, -0.03346359, -0.24075043, 0.06560551, -0.02120374, 0.04601545, -0.15758123, 0.01374428, 0.00048165, 0.02803750, 0.02912457, -0.03391429, 0.04741980, 0.01967679, 0.02371221, 0.11604109, 0.13861066, -0.04029721, -0.02842737, -0.02304542, -0.16913177, 0.02739315, -0.03635255, -0.04451554, -0.04054541, 0.03029668, -0.02913582, -0.16547714, -0.09491042, -0.17578524, -0.18864296, -0.08799648, 0.02081915, -0.02811545, -0.09965853, 0.11008038, 0.06254304, 0.09302689, -0.02422045, 0.03849568, 0.02530051, -0.01194021, 0.08849796, 0.04201902, 0.03854151, -0.00018218, 0.08378921, -0.08155776, 0.00502232, -0.04386525, -0.01303830, -0.05057618, -0.04535430, 0.02279542, -0.06830853, 0.09846609, -0.01011766, -0.03556928, -0.05028058, -0.01473245, 0.00920807, -0.07015944, -0.12746976, -0.02023375, -0.06760831, -0.06147945, -0.08951490, -0.20326702, -0.05668313, -0.04227552, -0.16164795, 0.00046927, -0.06494424, -0.15243088, -0.01233772, -0.06835392, -0.04026451, 0.02979413, -0.03611897, 0.00998623, 0.10388108, -0.00194611, -0.02885412, 0.01982512, -0.07977027, 0.04707051, 0.00055822, -0.06389516, 0.05939468, 0.03352953, -0.12294396, -0.07362857, -0.06986059, -0.06276206, 0.04303684, 0.00989361, -0.04120033, 0.08838715, 0.02097922, -0.00886600, 0.05361519, 0.04581298, -0.03572107, 0.03145168, 0.00633308, -0.02970537, 0.10829820, 0.00983983, -0.07618870, 0.06082163, -0.04257813, -0.00441113, 0.04089418, -0.02392063, -0.13123627, -0.02059936, 0.07521158, -0.02942942, -0.04184295, 0.10348679, 0.12010696, 0.05216053, 0.06736505, 0.01369870, 0.01152765, 0.09910683, 0.03561512, 0.02462134, 0.09523495, 0.05878205, 0.08962112, 0.15143125, 0.01932663, 0.16773291, 0.03122522, -0.04850764, -0.00612636, 0.14405893, 0.02658309},
    {-0.08082844, -0.10651127, 0.05565608, 0.08250984, 0.05038497, 0.11812094, 0.03600510, 0.06156286, -0.01093894, -0.04736247, -0.03899512, -0.05009743, 0.02876351, 0.02352734, 0.04082966, -0.02719451, -0.08686598, -0.05178846, -0.01357605, 0.06446770, 0.02859063, 0.01591485, -0.06200144, -0.11761150, 0.00557010, -0.02699699, -0.09860649, -0.06614809, 0.00068602, 0.01679112, -0.00754915, 0.03781711, 0.10287908, 0.05213781, 0.14298211, -0.00628357, -0.00908820, -0.05504175, 0.02500618, -0.00034068, 0.00036903, -0.04677388, 0.01250936, 0.07050862, 0.01168379, 0.09157055, -0.05376193, -0.03383425, -0.03101422, -0.09544817, -0.00050407, -0.06449413, 0.04255209, -0.03455537, -0.08010006, -0.11077488, 0.02124291, -0.07255002, -0.01342170, -0.08733713, 0.01656003, 0.01685461, -0.07644777, -0.05186015, -0.18363428, -0.02112318, 0.07481506, 0.04649014, -0.04549344, 0.10229229, -0.02641633, 0.04492681, -0.01322171, -0.01981234, 0.04302599, -0.02138272, -0.01613577, 0.03310302, -0.18649948, -0.03678245, -0.02808099, 0.10337503, 0.19692291, 0.06615752, 0.00481345, 0.03280413, 0.03342567, 0.04603530, 0.03642600, 0.01752443, 0.11213046, 0.00801567, -0.01565029, 0.06996270, -0.02852396, -0.00501135, 0.03516982, -0.03839289, 0.03428046, -0.01372115, -0.04168808, -0.02983370, -0.04388679, -0.04612022, -0.00953171, 0.00294558, -0.02133494, -0.04568292, 0.00584054, 0.02531341, 0.00040335, 0.01718406, -0.09184880, 0.05259817, 0.03794320, 0.04590235, -0.03835607, -0.00737111, 0.04088919, 0.18298349, -0.10823285, -0.22560099, -0.11729839, -0.06383102, 0.01340821, -0.03840326, -0.07179191, 0.00335867, -0.19566998, -0.04609072, 0.07550110, 0.10388174, -0.01574527, 0.00148256, 0.10759274, 0.11438115, 0.11922664, -0.04663730, -0.01233832, -0.06830481, -0.11319650, 0.00608941, 0.01302256, 0.01015658, -0.03213570, -0.01338425, 0.04864355, 0.04592110, 0.06848612, -0.04316257, -0.09483913, -0.04514350, -0.06505306, -0.18493834, -0.09484502, -0.04567264, 0.04860301, -0.01435174, 0.01983039, -0.07424594, 0.04206565, -0.05832449, -0.00132040, -0.01081867, 0.20032647, 0.01940475, -0.02952640, -0.15450838, 0.23573798, -0.04510718, -0.00293444, -0.13315766, 0.20302288, 0.08644359, 0.09272272, -0.05782362, 0.03327990, 0.05804243, 0.02565261, 0.00051848, 0.18077521, 0.03551256, -0.04755560, -0.14179143, 0.04015470, -0.01346261, 0.05136280, 0.03239023, 0.03975997, 0.10762629, -0.01341991, 0.03764696, -0.14884849, -0.00633479, 0.08728889, -0.02762407, -0.01423684, 0.10955662, 0.00328466, 0.05222113, 0.01222667, 0.00620237, -0.05237342, -0.05651488, -0.08627921, 0.10000886, 0.03689839, -0.04620232, -0.09679624, 0.02911939, 0.09651988, 0.04947916, -0.08420310, 0.01836914, 0.04484379, 0.01859826, 0.04310410, 0.03172215, -0.03090161, -0.04226867, 0.03284141, 0.05126472, 0.05986525, -0.12466677, -0.09715237, 0.02062531, 0.00244789, 0.10725628, 0.02415648, -0.01180458, -0.04543423, 0.01273681, -0.06342159, -0.02362363, 0.03760104, -0.06942943, -0.00631113, 0.04305281, -0.03945030, 0.00841968, -0.13702221, 0.04436170, 0.05311640, 0.11503163, -0.13427949, -0.01873970, 0.03222327, -0.00793824, -0.08020376, 0.10192543, -0.05662613, 0.02278729, 0.00094684, 0.00022687, -0.07969179, 0.02429667},
    {-0.02412562, -0.02236027, 0.02016312, -0.03288268, -0.09878725, -0.04353820, -0.00404676, -0.07878520, 0.00013744, -0.07093052, -0.00937110, -0.01983954, -0.00769636, -0.06447496, -0.08880784, 0.00409008, -0.06239018, -0.02885296, 0.01083323, -0.08455221, -0.07092178, 0.01533020, -0.05254075, 0.00982552, -0.01553889, -0.06662185, -0.08930960, 0.02009959, -0.03269877, -0.01229286, -0.02041039, -0.05450989, 0.02335158, -0.01480563, -0.08127639, -0.07387158, -0.00193470, -0.00007749, -0.05586073, 0.01965721, -0.05635918, -0.06085391, 0.01137490, -0.04567270, -0.00356555, 0.03434056, 0.03012527, 0.01761575, -0.05749597, 0.03310188, -0.03813336, 0.02094035, -0.06425983, 0.02402950, -0.05914087, 0.02821296, -0.06109243, 0.01565551, -0.07505237, 0.01721534, 0.03686993, -0.01052141, -0.06008257, -0.01943404, -0.00974724, 0.01573938, 0.02532727, 0.01762957, -0.06253053, -0.06215729, -0.02556951, 0.01050430, -0.04228588, -0.04502796, -0.01668435, -0.01493107, 0.00659761, -0.06544577, 0.03594777, 0.02148725, 0.00553216, 0.05082204, 0.02763746, 0.01482266, -0.10880134, -0.06245961, -0.02575200, -0.05061200, -0.07076740, -0.06972204, 0.01114376, 0.05323456, -0.05360995, -0.00695350, -0.03329930, 0.00979826, -0.03767157, -0.03553395, -0.02831338, 0.03890904, 0.05029542, 0.02789098, -0.01967164, 0.04759435, -0.03755283, 0.02151843, -0.03000862, -0.01081750, 0.05211797, -0.05698748, -0.01458968, 0.02441816, -0.02776636, -0.00155880, -0.04171527, 0.00941541, -0.05630153, -0.08079033, 0.00913211, -0.03908529, 0.02487920, -0.07186884, 0.02485564, 0.01304817, -0.06789559, 0.01257273, -0.09775031, 0.00752664, -0.01917439, -0.11126133, -0.05929855, 0.04412618, -0.06006959, 0.02078546, -0.03889234, -0.02894198, 0.02155600, -0.05610917, -0.01584481, 0.04667893, 0.02207726, 0.02047255, 0.01385145, -0.07495309, -0.08701650, -0.07524775, 0.01303873, -0.04649564, -0.08017408, -0.03452506, 0.04612915, 0.01551496, -0.07153206, -0.03431865, -0.02408039, 0.03092085, -0.06249567, -0.07527840, -0.04479425, -0.04881961, 0.02079104, -0.04301722, 0.00560726, 0.03157473, -0.00509004, 0.02278404, 0.01979121, -0.00677188, -0.00354106, -0.00002051, -0.01179864, -0.03876189, -0.02365857, -0.07034198, -0.06288258, -0.07111967, -0.05100028, -0.07228048, -0.01725232, -0.00207705, 0.05957223, 0.02793646, -0.02692630, -0.01917488, -0.07496734, -0.02693279, -0.06026642, -0.07886595, -0.07467092, -0.01054313, 0.02284186, 0.00558230, -0.03245135, -0.07276867, -0.04570118, -0.08353575, -0.08455142, 0.02404429, -0.04548492, -0.06421157, -0.06357697, -0.05059775, 0.01311106, -0.03307064, -0.02149287, -0.05839231, -0.10127220, -0.07404258, -0.03786239, -0.04691434, -0.04747665, 0.02614596, 0.04348382, -0.08311521, 0.01388268, -0.05330556, -0.06166252, -0.05260474, -0.08982447, 0.01120173, -0.01012265, -0.05689724, -0.02863895, 0.01696091, 0.02210717, -0.06619664, -0.06169201, -0.04493257, -0.08425914, -0.07368188, -0.03074804, -0.00537648, -0.00816896, -0.02543452, 0.01646308, -0.01665194, 0.02533376, -0.08538766, -0.05218895, 0.00805844, 0.00758023, -0.01819470, 0.04679820, 0.04355956, -0.05690715, -0.08539470, -0.03334495, -0.05537052, -0.04716330, -0.03034912, -0.01143585, -0.01970027, -0.07027215, -0.04298892, -0.05184482, -0.01329728},
    {0.11527114, 0.13797878, 0.08045714, -0.05934947, 0.04955611, -0.02721616, 0.03634534, -0.03050424, -0.04353481, -0.00793927, -0.01010327, -0.07966965, 0.01936202, -0.02832470, 0.02408729, -0.01285595, 0.09506228, 0.08398128, -0.00059905, -0.12507233, -0.01119971, -0.03284529, 0.02142404, -0.08943820, 0.02496172, 0.03196106, 0.07424363, 0.01507443, 0.00851123, 0.08416950, 0.02745139, -0.01193188, 0.24074502, -0.01878956, -0.00924677, -0.05443224, 0.03659767, 0.05207391, -0.01132490, 0.02281102, 0.03908620, -0.04139902, -0.08889726, 0.06818019, -0.05888154, -0.04778320, -0.02650338, 0.02935807, -0.08406791, 0.02706086, 0.03319561, 0.14873587, -0.11505952, -0.09463150, 0.03083028, 0.05913395, -0.06901514, -0.04075761, 0.02689042, -0.08140218, -0.08887255, -0.04336886, -0.02579480, -0.08427978, -0.09648972, -0.10736845, 0.01927712, -0.00524798, -0.01755601, 0.04926593, 0.06062702, 0.09841206, 0.07195815, 0.01975235, 0.00253462, 0.06380644, 0.01297038, 0.06815629, -0.00276142, 0.05130061, -0.04723900, 0.01908532, 0.08265294, -0.06039215, 0.04652629, 0.04713411, 0.05683407, 0.06782972, -0.05961812, -0.11026321, -0.11407845, -0.03742630, -0.07789203, 0.02154623, 0.01788141, 0.10818227, 0.02299429, 0.03241445, -0.05670543, -0.05319159, 0.03406388, -0.04488332, -0.00322851, 0.05298539, -0.05530755, -0.00741677, -0.03651451, -0.04608443, -0.04859658, 0.05458770, 0.00283571, -0.01594062, -0.03862005, 0.03663637, 0.03934401, 0.02970426, 0.02894969, -0.03988106, -0.01721679, -0.08305795, -0.01399716, -0.02223047, -0.11167017, -0.05710650, -0.03622565, 0.04047620, -0.03998458, -0.11169286, 0.04489699, -0.03380702, -0.04518439, -0.20662978, 0.06499323, 0.06786549, 0.09819847, 0.02049057, -0.00807548, -0.04292237, 0.07887965, 0.02759663, -0.04568384, 0.06300506, 0.04328742, 0.08555469, 0.17436530, 0.14482372, 0.06999049, 0.01262811, -0.02573520, -0.04219743, -0.08844018, -0.05467654, -0.04347483, 0.00273923, -0.03604804, -0.03560576, 0.04997952, 0.03357675, -0.07878091, -0.04920239, 0.04168293, 0.00469132, 0.01339947, 0.10119929, -0.14538752, -0.05812958, 0.02223448, -0.09071749, -0.02280848, -0.03986915, 0.05197928, 0.02304681, 0.14226896, 0.04725633, 0.02251728, 0.00061451, 0.05710578, 0.03665809, -0.09804397, -0.05657593, -0.01713189, 0.03182510, 0.00049268, -0.01289297, -0.04410987, 0.00383218, -0.03602009, 0.06008438, 0.17536730, 0.00797177, -0.05321031, 0.03213979, 0.08771347, 0.01480377, 0.00323773, -0.09544139, -0.04708892, 0.09114654, 0.06973128, 0.00216627, -0.05891963, 0.00076564, 0.03502995, 0.03927172, -0.03662986, 0.00743357, 0.10022818, -0.02582436, -0.06685536, 0.01589466, 0.01196853, 0.06207924, -0.06184461, -0.05346087, 0.08770438, 0.05536697, -0.06462415, 0.01284507, 0.06754439, 0.00504568, 0.04590568, -0.04824426, -0.04098969, -0.02454468, -0.09425466, 0.05265031, 0.10146272, 0.14345826, 0.04333170, -0.02414538, 0.04412988, 0.04737142, -0.05146358, 0.03599984, 0.00582820, -0.02500668, 0.02153933, 0.05331354, -0.09360519, -0.09466148, -0.04666489, -0.15434538, -0.10935031, -0.01014655, 0.03938017, 0.05041389, 0.03597197, 0.04730854, -0.00132685, 0.02811633, -0.00633480, 0.00587261, -0.06126412, 0.01538664, -0.05251820, 0.01566336},
    {-0.04488692, -0.06445909, -0.02611346, -0.09235601, -0.05745773, -0.08704051, 0.02216220, -0.02974199, 0.03417375, -0.03250717, 0.00859552, -0.07549574, -0.12542541, -0.08726352, -0.01942284, -0.03644922, -0.11536736, -0.09416920, -0.08923898, 0.03282952, 0.06808126, -0.02039563, 0.02804625, 0.00285945, 0.06578184, -0.08445139, -0.10964108, -0.06016026, 0.04461226, -0.00061752, 0.12458177, 0.08721612, -0.08299180, -0.15622036, 0.04799410, 0.06251899, 0.02032668, -0.16281107, 0.04256734, 0.04137581, -0.00379094, -0.02389412, 0.05435025, -0.00644700, -0.15206704, 0.06260804, -0.01786130, -0.02856022, 0.01640058, 0.08130664, -0.02626736, 0.05892396, 0.07549979, 0.10928239, -0.01388394, 0.00591823, -0.10211194, 0.03224932, 0.16554584, 0.02103761, -0.04309857, -0.04008773, 0.09946498, 0.05669595, -0.03182577, 0.03282739, 0.05974203, 0.03707863, -0.05938746, 0.12951976, -0.04635490, 0.03700782, 0.01879145, 0.09720727, -0.11488768, -0.09002427, 0.07629861, -0.01077813, -0.11076356, 0.07096907, 0.08030556, 0.03778248, -0.01707738, 0.09244048, 0.06488973, 0.13309267, -0.06310549, 0.04928235, 0.14005670, 0.05545074, 0.02728330, 0.01437234, 0.08806045, -0.02838174, -0.09316800, -0.09596626, 0.01361717, -0.05822948, 0.05750843, -0.03840934, -0.02353379, 0.04663754, -0.04808426, -0.03083722, 0.04440074, 0.04639430, 0.01510520, 0.03786598, -0.01295538, 0.00540159, -0.06218708, -0.04686626, 0.01212414, -0.05306407, -0.02077028, -0.03581157, -0.02697010, 0.08344811, -0.09295075, -0.07461323, -0.03907586, 0.00001204, -0.08758444, -0.04080577, 0.07580354, 0.03779542, 0.04254300, -0.01376725, -0.07657470, -0.04056998, 0.08056984, 0.10054464, 0.00733867, -0.01880244, 0.01236270, -0.00114106, 0.13992807, 0.07456560, -0.04754887, -0.12413278, -0.03930208, -0.07824837, -0.05370735, -0.11814922, -0.11093301, -0.09018709, -0.07177356, -0.09726880, 0.03549460, -0.05191436, -0.00182773, 0.04407155, -0.15963548, -0.06529344, -0.03815140, -0.05674608, 0.06410391, 0.03821346, 0.05436640, -0.00685069, 0.01468837, -0.01912335, -0.07716344, -0.04958246, 0.03535480, 0.03316994, 0.06513166, 0.00645548, -0.04045828, -0.12286835, 0.04795485, 0.07743026, -0.03670359, -0.11332922, 0.08163541, 0.18626142, -0.03981080, -0.06234245, -0.00602529, -0.02823457, 0.09232654, -0.10372207, -0.07415589, 0.11554708, 0.00340627, -0.12244253, -0.10411546, 0.13124172, -0.14481948, 0.08170990, -0.02651599, 0.05745350, -0.10513343, 0.00901089, 0.06354485, -0.08441688, 0.02364924, -0.00812419, -0.04660232, 0.07357563, 0.13087744, 0.01960869, 0.01309240, 0.03577852, 0.06400359, 0.04181077, 0.04132843, 0.09667903, -0.02641684, 0.11534202, 0.06043340, 0.00717518, -0.05314562, 0.04847096, 0.01421377, -0.09014725, 0.00772842, -0.07031155, 0.01552776, -0.01410157, 0.05401156, -0.01505053, 0.08214020, -0.04337655, 0.02525406, -0.00490436, -0.04177146, 0.05424003, 0.09183458, -0.00113496, -0.06073132, 0.03983317, -0.00589975, 0.04144260, 0.03665789, -0.02567654, -0.05042667, -0.01816689, 0.04817414, 0.02042560, -0.08987211, 0.07148597, 0.04150591, 0.02637697, -0.14375979, 0.02281649, -0.05241843, -0.11050445, -0.00950679, 0.15143307, -0.00876767, 0.09002595, 0.09907313, 0.04357671, -0.10064889, 0.01463341},
    {0.05470526, -0.13199563, -0.06529847, 0.00034732, 0.12725529, 0.05710028, -0.09687649, -0.00654677, 0.09258316, -0.07080039, 0.03077431, 0.09557317, 0.03264343, -0.04170453, 0.05525875, 0.07491423, -0.10390048, 0.00640913, 0.04391894, 0.01628261, 0.06681758, -0.01705413, -0.08535953, -0.16111962, 0.00789524, 0.04297864, -0.06483769, 0.16138965, 0.05140078, -0.07536096, -0.03212476, 0.03515006, 0.10595555, -0.13301158, -0.13971514, 0.07398985, 0.02367746, 0.05199051, 0.05682797, 0.08379816, 0.05549805, -0.04509527, 0.07448781, 0.02093994, 0.06641378, 0.04163514, 0.01287229, 0.05621710, 0.16260296, 0.08419245, 0.13368441, -0.04209959, 0.00448698, -0.02655721, 0.00026743, -0.07184129, -0.15574381, -0.04049984, 0.01373703, -0.03874548, -0.01242990, 0.00188586, 0.11403503, 0.01520571, -0.00774926, 0.00127817, 0.20370588, 0.15892273, 0.01007486, -0.03016305, 0.13187261, 0.03157975, 0.02252831, 0.02199651, 0.00875614, 0.05641194, -0.00522972, 0.08025906, 0.00122477, -0.17374361, 0.04570467, 0.05069772, 0.09772421, -0.13053042, 0.02351180, 0.08247519, 0.11910429, -0.12320977, 0.04326196, 0.09024395, 0.04268000, 0.11663948, 0.02457535, 0.16973411, 0.14727224, 0.01733151, -0.04168863, -0.04526445, -0.04329680, 0.00370902, -0.04398695, 0.01696824, -0.05256602, -0.02673402, -0.01296929, 0.02412911, -0.04352245, 0.00340964, -0.03055230, -0.00998618, 0.03326336, -0.02635898, 0.04796958, 0.03184916, 0.05707499, -0.06003875, 0.04187614, 0.05006488, 0.06621009, -0.10368562, -0.04152175, -0.03000925, 0.07858473, 0.05594544, 0.00579482, -0.01257335, 0.10981964, 0.16000956, -0.05252413, -0.10061761, -0.01427280, 0.07279874, -0.05982130, -0.00909480, 0.03690942, -0.04849140, 0.06586172, 0.00764711, -0.04047288, -0.03221956, 0.05287196, -0.04029291, 0.01238544, 0.09972177, 0.13558899, -0.00919909, -0.03009856, -0.01872509, 0.01360463, -0.06194366, -0.08612437, -0.06402636, -0.01640034, -0.06679266, 0.01657249, 0.12015627, 0.01559898, -0.03578721, 0.01406978, 0.11640110, 0.07194318, 0.06926382, 0.05949918, 0.07561988, 0.12594995, -0.04849855, -0.03281818, 0.01651822, 0.07961591, -0.09869669, -0.02666654, -0.06414501, 0.02017401, -0.00737041, 0.09250609, 0.03879992, -0.03056649, 0.06329677, -0.12536639, -0.12258492, 0.16802050, -0.06005196, 0.05712650, -0.01027634, 0.11482497, -0.00285168, 0.07745788, 0.05238094, 0.07374629, 0.06731596, -0.01016073, 0.09114376, -0.16039106, -0.00942965, -0.01448210, 0.06694135, 0.00530709, 0.08609027, 0.02760916, -0.08326194, 0.02836683, -0.04875018, -0.03081160, -0.06818473, 0.07126530, 0.02617826, -0.08542696, 0.02156616, 0.02108283, -0.02523580, 0.11312804, 0.05242095, -0.15983501, -0.04663587, -0.00697296, 0.01498191, -0.12704968, -0.04347060, 0.03107477, 0.00090572, 0.00496900, 0.00585860, 0.00227955, 0.10076915, 0.10743803, 0.08251803, 0.01223474, -0.09770751, -0.02809037, 0.00641973, 0.00505140, -0.01884559, -0.04082974, -0.02757123, 0.03109403, 0.00310762, -0.05185357, 0.05720832, 0.02148012, -0.00078842, -0.10076973, 0.02364763, 0.08452561, 0.13980213, -0.07732507, 0.04586384, 0.08566815, 0.01453372, -0.01286770, 0.02823159, 0.02573107, -0.04100340, 0.02365262, 0.07130926, 0.02311303, 0.13309006},
    {0.14469609, 0.03599019, 0.05507480, 0.04580351, 0.04904507, -0.00405941, -0.02612304, -0.06716253, -0.06860214, 0.08501587, -0.10575588, -0.25686824, -0.08981062, -0.14665125, -0.15553536, -0.08780602, 0.06661806, 0.10990826, 0.04332374, -0.00576546, -0.01492226, 0.04467082, 0.01226495, -0.11938760, -0.09994719, -0.02722044, -0.12237506, -0.07912105, -0.11896329, 0.13139416, 0.20103337, 0.18749695, 0.05801700, 0.12003497, 0.15975341, 0.05491963, 0.00318203, 0.01642921, 0.10720099, 0.01892497, -0.09777121, -0.06114630, 0.00839307, -0.04026155, -0.02049898, 0.05111233, -0.05375449, -0.12223127, -0.05690090, -0.00531731, -0.00725953, 0.04070823, -0.14212766, -0.09098140, -0.04586835, 0.01770157, -0.08262602, 0.00424777, 0.13211311, 0.17806160, -0.02143518, 0.06607215, 0.03642163, 0.03075400, -0.04882297, -0.07062311, -0.01577352, -0.02609658, 0.09804908, 0.10298234, -0.08842172, -0.12826557, 0.07990115, 0.04761253, -0.04582217, 0.02008625, 0.02704349, -0.02209533, 0.09842455, 0.27519488, -0.03827475, -0.07951253, -0.05195360, 0.05482181, 0.08773582, 0.04566791, -0.12079350, 0.14519607, 0.04668733, -0.05897063, 0.06433337, -0.09473596, -0.04715783, -0.04984117, -0.00619569, -0.01440553, -0.02452993, 0.05489977, 0.04998346, 0.00625961, 0.00837367, -0.05664219, -0.04266265, 0.01659855, -0.04135527, 0.05923649, 0.00796952, -0.00219066, -0.02409793, 0.06203958, -0.03926510, 0.03837662, -0.05041603, 0.01760143, -0.02012713, 0.00254027, -0.01202569, -0.02838328, -0.01715738, 0.06621704, -0.00072353, -0.06252021, -0.04958205, 0.01231514, 0.05197436, -0.03215557, -0.00944282, -0.12519425, -0.01436607, 0.08845305, -0.01822581, 0.03835314, 0.01670819, 0.12140709, 0.16671520, -0.18147223, -0.14536771, 0.06899545, -0.07933612, -0.11776748, -0.17549232, -0.02270830, 0.13010907, -0.01090707, 0.11746594, 0.10168901, 0.10499956, 0.02078864, -0.04460482, -0.10240317, -0.03357986, 0.06988289, -0.08115722, -0.04429334, -0.03944983, -0.11422428, -0.12318332, -0.05923903, -0.03699674, -0.14985670, 0.02824627, -0.03151241, -0.00495095, 0.03976125, -0.07078987, -0.05785540, 0.00173318, -0.03330157, -0.04469235, 0.00183249, 0.20475230, 0.15819365, 0.15494014, -0.05513638, 0.10851268, 0.01084796, 0.07252938, 0.08254530, 0.03203254, -0.00014248, -0.06748161, -0.06790207, -0.03771431, 0.00638757, -0.22807406, -0.07490555, -0.12605353, 0.06460764, 0.03608515, 0.07429506, 0.04337642, -0.12026058, 0.03115790, 0.04015137, 0.11227265, 0.06653526, 0.08556151, -0.01860571, 0.02966638, -0.00359940, 0.03765451, 0.04665063, -0.04522117, -0.09763677, -0.06992333, -0.00013397, 0.04418369, 0.21665199, -0.03742402, 0.04715851, -0.05961893, -0.00844630, -0.03415747, 0.01464387, 0.02218495, -0.02291314, -0.04898816, -0.02476911, 0.00559342, 0.13231806, -0.02264293, 0.02763221, 0.00394191, -0.04828060, -0.06038317, 0.01622756, -0.05300778, -0.00193794, 0.02955191, -0.05506264, 0.04675413, 0.11146532, 0.01789025, 0.01759557, 0.10090053, 0.06449251, 0.05745601, 0.05833111, -0.08898314, -0.10335849, -0.02774312, -0.03276593, -0.06088755, -0.07450086, 0.13766374, 0.11067033, -0.00388043, -0.09521284, 0.11539766, 0.12666936, -0.05949459, 0.03613377, -0.05227877, -0.06769186, -0.11650176, 0.01404969},
    {0.09645154, 0.15386911, 0.12915082, 0.00141169, -0.13635822, -0.00751267, -0.03352227, 0.00098593, -0.06316969, 0.01118535, 0.01085417, -0.04823782, -0.00817270, 0.03800819, 0.00002685, -0.12405035, 0.05318353, 0.05972963, -0.02070093, 0.01069566, -0.03462452, 0.10344374, 0.04618548, -0.03110561, -0.00495630, -0.01862852, -0.06200687, -0.15736896, -0.06131314, 0.05072414, -0.04667756, -0.16359136, -0.06589952, -0.07167143, -0.08860057, -0.08462234, 0.05911260, 0.02755053, 0.01351514, 0.10798205, -0.03749778, -0.00961570, 0.04839729, 0.12173036, -0.03358249, -0.00719868, 0.02890086, 0.07199696, -0.17435534, 0.02251418, 0.07924242, 0.07801410, 0.04781274, 0.09762695, 0.02437375, 0.03054110, 0.10001797, -0.02604756, -0.01545493, -0.06705204, 0.02494261, -0.06712389, -0.05920103, 0.00374323, 0.01272173, -0.03217848, -0.12555617, -0.09264349, 0.01927831, 0.05449629, -0.08310365, 0.14278673, -0.00011402, 0.03421455, -0.01926608, 0.09590696, -0.03856598, -0.01447092, 0.06520285, 0.04618162, -0.02696070, 0.07762679, 0.02040633, -0.04945148, 0.00342983, 0.02917914, -0.10409229, 0.01191748, -0.02596930, 0.02672958, -0.06955111, -0.01520985, -0.03872751, 0.05314469, 0.01841204, 0.00979164, 0.05623224, -0.00363977, 0.01919326, 0.04028494, 0.01263212, 0.00053760, 0.03517826, -0.01948814, -0.04408095, -0.01592659, 0.05216710, 0.05783857, -0.04938510, -0.01395988, -0.05533075, -0.04491223, 0.01100787, -0.00983160, 0.03088375, -0.10157738, 0.03726248, 0.11034302, 0.01948728, -0.01479085, 0.07943175, 0.12344801, 0.00599423, -0.16948184, -0.07251109, -0.05123143, -0.04184156, -0.17986000, 0.11006255, 0.05230756, 0.02251519, -0.15903464, 0.04551790, 0.02239073, -0.06661073, 0.00924868, 0.02609550, -0.03369658, 0.08212828, 0.09396920, 0.05131782, -0.02006815, -0.08040548, -0.09313273, -0.00793653, 0.05321833, -0.04458600, -0.08398520, 0.01126472, 0.07478376, 0.06951128, -0.08691516, 0.06233091, 0.06630887, -0.03192082, -0.13330126, -0.00053053, -0.02508200, -0.07632895, -0.12084356, -0.02032902, -0.06935605, 0.08107152, 0.14697438, -0.09549747, -0.07096691, -0.04199840, -0.05577301, 0.03870222, 0.02731162, -0.11859177, -0.08501921, -0.05137402, -0.00768451, -0.17391326, 0.04223268, 0.01687160, 0.02029766, 0.05932083, -0.02777764, -0.14517470, 0.05122280, -0.09616479, -0.13001943, -0.08220387, -0.08727129, -0.04518685, -0.05211678, 0.06972215, 0.04431044, 0.00711932, -0.12519024, 0.09345371, 0.03449767, -0.01937677, -0.10580612, -0.12511975, 0.01807365, 0.12105180, 0.03967196, -0.08740439, 0.11233501, 0.07142647, 0.05268867, -0.00327492, -0.06353109, -0.04014729, 0.01400075, -0.07541524, 0.01576394, -0.01615097, -0.00993612, 0.01213873, 0.09292916, 0.09185481, 0.08308931, -0.00464681, -0.02882442, -0.03569287, 0.05640814, 0.05222729, -0.06766737, 0.00142513, 0.01055178, -0.09655925, 0.07081901, 0.08106696, 0.08393990, 0.10052993, 0.11843202, 0.07548968, 0.01296092, -0.01772996, 0.05125571, 0.02978653, 0.04299917, -0.04322928, -0.02883728, 0.01643138, -0.02798820, 0.02038996, -0.02533673, -0.13820112, -0.03423629, 0.02468839, 0.06121250, 0.02594218, 0.05755412, 0.08830534, -0.02298512, 0.00175412, 0.04893981, -0.06482742, 0.02369239, -0.05043065, 0.11720945},
    {-0.04387927, 0.00225595, -0.08008803, -0.05301268, -0.06472351, 0.02018948, -0.10665477, -0.03688646, -0.08376274, -0.03896144, -0.03959369, -0.01051067, 0.00488311, -0.03946684, -0.04838379, -0.01098861, -0.00291752, 0.05638229, 0.01016706, -0.08478435, -0.00723220, -0.03844792, -0.09637388, -0.00244827, -0.16804075, -0.04870122, -0.03485746, -0.05023373, -0.03736587, -0.07687976, -0.13155276, -0.14276588, 0.04492710, -0.18498789, -0.09659617, -0.13250887, -0.12783517, 0.00824605, -0.08191610, 0.10774302, -0.04933096, -0.03291141, 0.07038091, 0.11676978, 0.06927437, -0.01349824, 0.02642421, 0.06152036, -0.02045922, -0.11300298, -0.00975020, 0.00611898, -0.02506575, 0.00091206, 0.02515098, -0.04242237, 0.00926276, 0.04585508, -0.09700283, -0.02503672, 0.04109747, 0.07711373, -0.06994775, -0.07987933, -0.03938951, 0.05785931, 0.13156347, 0.04870336, 0.01136510, -0.00336612, 0.03913962, 0.20394373, 0.05301812, -0.06416474, 0.07190908, 0.14773548, -0.01395072, 0.05379785, 0.12454532, 0.07978948, -0.01604935, -0.02869642, 0.09217323, 0.00841274, -0.00825807, -0.00819810, 0.09163582, 0.03920907, -0.05178060, -0.08873952, -0.02329427, 0.06682795, 0.04236785, 0.20121315, 0.11660851, 0.02196958, -0.00354654, 0.03185532, -0.05234386, 0.04912575, 0.05257103, -0.01455228, 0.02632686, -0.01032708, 0.03942264, -0.06171116, 0.01205710, 0.05548529, -0.05484958, -0.05203094, 0.04374855, -0.07084773, -0.04674974, -0.04838138, -0.03203724, -0.06450615, -0.06630471, -0.00999514, 0.11291365, -0.09710769, 0.11892668, -0.04480978, -0.03081619, -0.05048528, 0.01065749, -0.01718787, -0.05011609, -0.02799681, 0.03254557, -0.00857594, 0.04521113, 0.00985200, 0.14154820, 0.04627776, -0.05221021, 0.08430143, -0.00076409, -0.12365248, 0.00794400, 0.16975683, 0.03345138, 0.02069775, -0.04973779, 0.02983401, -0.02859321, 0.03649490, -0.03801353, -0.14006884, -0.13323933, -0.05660061, -0.01908296, -0.10185916, 0.07693885, 0.05656300, 0.08252808, 0.03358967, -0.05321129, 0.00356354, -0.03040932, -0.02370097, 0.09258480, 0.02023217, 0.05791444, 0.12568298, -0.00239264, -0.05613609, -0.09621888, -0.08315363, 0.05154343, -0.07487467, -0.06789585, -0.16954656, -0.01011525, -0.06469563, -0.09749160, -0.17381141, 0.15176329, 0.10025027, -0.00415758, -0.10828444, -0.09847664, -0.07177719, -0.11163405, -0.05387585, -0.13177508, -0.08226818, 0.00117867, -0.06704219, 0.01827639, -0.12071616, -0.05412841, -0.06880023, -0.07723984, 0.01146234, 0.06250257, -0.00614571, 0.05071779, 0.05904129, -0.02078000, -0.00298130, -0.04849750, -0.11549480, 0.00890319, -0.00302215, -0.05584344, 0.10161520, -0.00018535, -0.07098066, -0.08096579, -0.06323573, 0.05854143, 0.03638501, 0.04126814, -0.03499788, 0.11604696, 0.04321200, 0.07957745, -0.02422583, -0.07043889, 0.00123276, 0.07220648, -0.04936724, -0.05579546, 0.05526695, -0.07282180, 0.06149811, 0.11485391, 0.03952657, -0.04716452, 0.09479214, 0.06047962, -0.00907855, -0.01260814, -0.05309759, 0.00344114, 0.02603590, -0.01716221, 0.01559886, -0.01655799, 0.04483291, -0.08335271, 0.02643156, 0.06140262, 0.08720252, 0.00871617, -0.02700369, 0.06852775, 0.08956239, 0.08490504, 0.01483782, 0.02000488, 0.02727190, 0.01609895, 0.08080482, 0.08207878, 0.08419823},
    {-0.05020025, 0.00759835, -0.07921679, 0.01573274, -0.01094441, -0.07918454, -0.02464990, -0.02975168, 0.03734502, 0.04327985, -0.01250818, -0.06388062, 0.01202119, 0.01734284, 0.03871066, -0.07000878, -0.03637022, -0.00655553, -0.07359675, 0.03225210, 0.03953275, -0.04383497, -0.02376187, -0.05252473, 0.05937497, -0.00231359, -0.03450245, -0.01643275, -0.02705657, -0.06197947, 0.02978443, -0.02074799, 0.04076568, -0.00048025, 0.01119252, 0.05641849, -0.04231814, -0.04858689, 0.00832234, -0.04373625, -0.04377652, 0.03506717, -0.04903634, -0.01019081, -0.01570986, -0.05723220, -0.04699006, -0.01465411, -0.07705987, 0.05818383, -0.04588031, -0.04217461, -0.03713389, -0.07673160, 0.02831689, 0.02173515, -0.06431766, 0.00109896, -0.02477206, -0.00926897, -0.04697916, -0.04152283, -0.03439919, -0.07538170, -0.04483224, -0.02393157, -0.01851979, -0.02715452, -0.07695232, 0.04227751, 0.00755586, 0.01245494, 0.03655741, 0.02902243, -0.01347737, -0.01543817, -0.06221433, 0.02463068, -0.05863538, 0.04344403, -0.00231976, -0.05224515, 0.05678737, 0.04939318, -0.04829139, -0.03942636, -0.00261557, -0.02205721, -0.01117473, -0.00278971, 0.00349556, -0.01457099, -0.02718111, -0.01918249, 0.01268554, 0.03763431, 0.04358427, -0.03564664, 0.02889316, 0.00757635, -0.04494192, -0.01032384, -0.01908019, -0.01395150, -0.02608379, -0.05150627, -0.03833130, 0.04654429, 0.02015439, -0.04908292, 0.05613285, 0.02792320, -0.04428925, -0.06656331, -0.05616167, 0.01642166, -0.03767127, -0.05561103, -0.01414609, -0.03136004, -0.00889546, -0.00322635, 0.00285765, -0.01012294, 0.00845871, 0.00319144, -0.07398161, 0.02163226, -0.05218325, -0.02030038, -0.01378778, -0.04836866, -0.01709511, -0.05097620, -0.02585009, -0.01438947, -0.05305801, 0.02519953, -0.03166893, -0.01715830, 0.05289209, -0.02747455, -0.00138042, -0.03156262, -0.00612211, -0.00320007, 0.01133166, 0.00468390, -0.01931262, -0.07333004, -0.05644988, 0.04315206, -0.05422772, -0.01819573, -0.00406964, 0.02038315, -0.05592182, -0.07527741, 0.03744932, -0.04552006, -0.04388599, -0.05719551, 0.01242103, -0.02472057, -0.02878739, 0.01488852, 0.06185352, -0.00752826, -0.05439047, -0.01175358, -0.05066673, -0.05457839, -0.01052853, 0.02330890, 0.00213399, -0.07363198, -0.02372436, -0.02668721, -0.07200605, 0.01842700, -0.02012606, 0.02094798, 0.01889381, 0.03415339, -0.03213639, 0.02040498, 0.02700192, -0.00842950, 0.03240988, 0.01934969, -0.03757676, 0.01691080, -0.06362830, 0.02745523, -0.04618032, 0.00670659, 0.04393042, -0.05860354, -0.03956233, -0.04197672, -0.04500383, -0.03679174, -0.07327411, 0.01711294, 0.03512030, 0.02138020, 0.00427681, 0.02360018, -0.02020380, -0.00025768, -0.00177563, -0.00436027, -0.05159405, -0.05727953, -0.01418682, -0.02440044, -0.01326260, -0.06714201, -0.07493490, -0.04621118, -0.06784458, 0.01704489, -0.03453211, 0.03611726, -0.01966169, -0.03179994, 0.02130278, -0.07021577, -0.03671174, -0.00563671, -0.02706105, 0.00419136, -0.05076794, -0.00886293, -0.05837794, -0.05146392, -0.02521060, 0.03527300, 0.00080778, 0.01470038, -0.07140853, -0.03577767, -0.04707109, -0.02943762, 0.03424381, -0.05189489, -0.05367796, 0.00967675, -0.02785746, -0.07540736, -0.02640781, 0.04771776, 0.00925127, 0.02039579, 0.01777471, 0.03410953},
